{"learning_rate": 0.05, "init_value": 8.942729650327095, "trees": [{"children_left": [1, 2, 3, 4, 5, 6, 7, -1, -1, 10, -1, -1, 13, 14, -1, -1, 17, -1, -1, 20, 21, 22, -1, -1, 25, -1, -1, 28, 29, -1, -1, 32, -1, -1, 35, 36, 37, 38, -1, -1, 41, -1, -1, 44, 45, -1, -1, 48, -1, -1, 51, 52, 53, -1, -1, 56, -1, -1, 59, 60, -1, -1, 63, -1, -1, 66, 67, 68, 69, 70, -1, -1, 73, -1, -1, 76, 77, -1, -1, 80, -1, -1, 83, 84, 85, -1, -1, 88, -1, -1, 91, 92, -1, -1, 95, -1, -1, 98, 99, 100, 101, -1, -1, 104, -1, -1, 107, 108, -1, -1, 111, -1, -1, 114, 115, 116, -1, -1, 119, -1, -1, 122, 123, -1, -1, 126, -1, -1, 129, 130, 131, 132, 133, 134, -1, -1, 137, -1, -1, 140, 141, -1, -1, 144, -1, -1, 147, 148, 149, -1, -1, 152, -1, -1, 155, 156, -1, -1, 159, -1, -1, 162, 163, 164, 165, -1, -1, 168, -1, -1, 171, 172, -1, -1, 175, -1, -1, 178, 179, 180, -1, -1, 183, -1, -1, 186, 187, -1, -1, 190, -1, -1, 193, 194, 195, 196, 197, -1, -1, 200, -1, -1, 203, 204, -1, -1, 207, -1, -1, 210, 211, 212, -1, -1, 215, -1, -1, 218, 219, -1, -1, 222, -1, -1, 225, 226, 227, 228, -1, -1, 231, -1, -1, 234, 235, -1, -1, 238, -1, -1, 241, 242, 243, -1, -1, 246, -1, -1, 249, 250, -1, -1, 253, -1, -1], "children_right": [128, 65, 34, 19, 12, 9, 8, -1, -1, 11, -1, -1, 16, 15, -1, -1, 18, -1, -1, 27, 24, 23, -1, -1, 26, -1, -1, 31, 30, -1, -1, 33, -1, -1, 50, 43, 40, 39, -1, -1, 42, -1, -1, 47, 46, -1, -1, 49, -1, -1, 58, 55, 54, -1, -1, 57, -1, -1, 62, 61, -1, -1, 64, -1, -1, 97, 82, 75, 72, 71, -1, -1, 74, -1, -1, 79, 78, -1, -1, 81, -1, -1, 90, 87, 86, -1, -1, 89, -1, -1, 94, 93, -1, -1, 96, -1, -1, 113, 106, 103, 102, -1, -1, 105, -1, -1, 110, 109, -1, -1, 112, -1, -1, 121, 118, 117, -1, -1, 120, -1, -1, 125, 124, -1, -1, 127, -1, -1, 192, 161, 146, 139, 136, 135, -1, -1, 138, -1, -1, 143, 142, -1, -1, 145, -1, -1, 154, 151, 150, -1, -1, 153, -1, -1, 158, 157, -1, -1, 160, -1, -1, 177, 170, 167, 166, -1, -1, 169, -1, -1, 174, 173, -1, -1, 176, -1, -1, 185, 182, 181, -1, -1, 184, -1, -1, 189, 188, -1, -1, 191, -1, -1, 224, 209, 202, 199, 198, -1, -1, 201, -1, -1, 206, 205, -1, -1, 208, -1, -1, 217, 214, 213, -1, -1, 216, -1, -1, 221, 220, -1, -1, 223, -1, -1, 240, 233, 230, 229, -1, -1, 232, -1, -1, 237, 236, -1, -1, 239, -1, -1, 248, 245, 244, -1, -1, 247, -1, -1, 252, 251, -1, -1, 254, -1, -1], "feature": [15, 15, 15, 15, 3, 2, 2, -2, -2, 7, -2, -2, 1, 0, -2, -2, 5, -2, -2, 15, 15, 15, -2, -2, 15, -2, -2, 7, 3, -2, -2, 3, -2, -2, 7, 15, 3, 5, -2, -2, 0, -2, -2, 3, 5, -2, -2, 6, -2, -2, 15, 3, 5, -2, -2, 3, -2, -2, 3, 5, -2, -2, 3, -2, -2, 7, 15, 15, 6, 3, -2, -2, 7, -2, -2, 3, 7, -2, -2, 2, -2, -2, 15, 6, 3, -2, -2, 7, -2, -2, 7, 5, -2, -2, 6, -2, -2, 15, 3, 5, 15, -2, -2, 5, -2, -2, 15, 3, -2, -2, 10, -2, -2, 15, 5, 3, -2, -2, 5, -2, -2, 3, 5, -2, -2, 5, -2, -2, 15, 7, 15, 15, 5, 3, -2, -2, 3, -2, -2, 3, 5, -2, -2, 6, -2, -2, 15, 3, 7, -2, -2, 7, -2, -2, 6, 3, -2, -2, 7, -2, -2, 15, 15, 5, 3, -2, -2, 5, -2, -2, 5, 3, -2, -2, 5, -2, -2, 5, 3, 15, -2, -2, 15, -2, -2, 5, 15, -2, -2, 15, -2, -2, 15, 7, 3, 15, 7, -2, -2, 5, -2, -2, 2, 5, -2, -2, 15, -2, -2, 15, 5, 3, -2, -2, 5, -2, -2, 3, 5, -2, -2, 5, -2, -2, 15, 15, 7, 3, -2, -2, 3, -2, -2, 7, 15, -2, -2, 15, -2, -2, 0, 3, 15, -2, -2, 2, -2, -2, 2, 5, -2, -2, 15, -2, -2], "threshold": [3.0173702239990234, 1.6782900094985962, 1.1386772394180298, 4.2115600081160665e-05, 40.733192443847656, -73.7935676574707, -73.79364395141602, -2.0, -2.0, 2012.5, -2.0, -2.0, 40.86334800720215, -73.9694595336914, -2.0, -2.0, 14.5, -2.0, -2.0, 0.8965872228145599, 0.15909837186336517, 0.15472419559955597, -2.0, -2.0, 0.7236597239971161, -2.0, -2.0, 2012.5, 40.76976776123047, -2.0, -2.0, 40.76801109313965, -2.0, -2.0, 2012.5, 1.3855823874473572, 40.768394470214844, 7.5, -2.0, -2.0, -73.89384460449219, -2.0, -2.0, 40.76993179321289, 7.5, -2.0, -2.0, 8.5, -2.0, -2.0, 1.3872178792953491, 40.76951789855957, 7.5, -2.0, -2.0, 40.7796745300293, -2.0, -2.0, 40.769243240356445, 7.5, -2.0, -2.0, 40.78581237792969, -2.0, -2.0, 2012.5, 2.2992697954177856, 2.029292941093445, 8.5, 40.76861381530762, -2.0, -2.0, 2011.5, -2.0, -2.0, 40.77010917663574, 2011.5, -2.0, -2.0, -73.97842025756836, -2.0, -2.0, 2.645171880722046, 8.5, 40.77272987365723, -2.0, -2.0, 2011.5, -2.0, -2.0, 2011.5, 7.5, -2.0, -2.0, 8.5, -2.0, -2.0, 2.2328377962112427, 40.77264595031738, 7.5, 1.986201286315918, -2.0, -2.0, 18.5, -2.0, -2.0, 1.9899513125419617, 40.78547477722168, -2.0, -2.0, 0.5, -2.0, -2.0, 2.721008539199829, 7.5, 40.7313117980957, -2.0, -2.0, 18.5, -2.0, -2.0, 40.77475547790527, 7.5, -2.0, -2.0, 18.5, -2.0, -2.0, 5.014612436294556, 2012.5, 3.9793797731399536, 3.47048020362854, 7.5, 40.7352409362793, -2.0, -2.0, 40.77662467956543, -2.0, -2.0, 40.770734786987305, 7.5, -2.0, -2.0, 8.5, -2.0, -2.0, 4.551873207092285, 40.76238441467285, 2011.5, -2.0, -2.0, 2011.5, -2.0, -2.0, 8.5, 40.753456115722656, -2.0, -2.0, 2011.5, -2.0, -2.0, 4.044447660446167, 3.534814476966858, 7.5, 40.73295593261719, -2.0, -2.0, 18.5, -2.0, -2.0, 7.5, 40.74801826477051, -2.0, -2.0, 19.5, -2.0, -2.0, 7.5, 40.72861099243164, 4.353161334991455, -2.0, -2.0, 4.5309014320373535, -2.0, -2.0, 19.5, 4.6258955001831055, -2.0, -2.0, 4.526502847671509, -2.0, -2.0, 6.223327875137329, 2012.5, 40.75845146179199, 5.512578725814819, 2011.5, -2.0, -2.0, 7.5, -2.0, -2.0, -73.93110275268555, 7.5, -2.0, -2.0, 5.648126840591431, -2.0, -2.0, 5.644715070724487, 6.5, 40.72606658935547, -2.0, -2.0, 19.5, -2.0, -2.0, 40.760589599609375, 6.5, -2.0, -2.0, 7.5, -2.0, -2.0, 12.68505859375, 7.35797905921936, 2012.5, 40.77010154724121, -2.0, -2.0, 40.76582908630371, -2.0, -2.0, 2012.5, 8.955013275146484, -2.0, -2.0, 10.652163028717041, -2.0, -2.0, -73.99266815185547, 40.84478950500488, 16.299677848815918, -2.0, -2.0, -73.93880844116211, -2.0, -2.0, -73.97151184082031, 16.0, -2.0, -2.0, 13.304481983184814, -2.0, -2.0], "value": [4.199889029737171e-15, -1.842209575354328, -3.0049151499335274, -3.592414830378436, -1.7307966426508903, -1.000322773536266, -0.7886416000126308, -0.8436790174157037, 7.907270349672904, -3.1717619083916118, -2.381860085109704, -5.442729650327095, -1.9659768827994053, -1.9904148355122746, -2.330689516547833, -1.5682483225262713, 4.632270349672905, 1.7072703496729051, 7.557270349672905, -3.678386434084887, -3.973377769034206, -3.1445931941152954, -3.2187689471213186, 1.637270349672905, -4.018875670005276, -4.211886964759232, -3.7652393527851755, -3.220616163485102, -3.504599685488011, -3.399179203328451, -3.971280887076199, -2.733959286569118, -2.5401116986586163, -3.4044211926156915, -2.2703312372008573, -2.6556816637709177, -2.968434287293009, -2.835710106353227, -3.365572289920997, -2.734465828794655, -3.491158130121816, -3.516505423522961, 2.1286989211014764, -2.3679328052028943, -2.2438461480500838, -2.78245315263123, -2.141716018729786, -2.909033301832535, -3.113186503118958, -2.5599171503270948, -1.6446819542884086, -2.0389138608535204, -1.8593133607344363, -2.6986820312794597, -1.7137237506221632, -2.8452917270765323, -2.653700114462116, -3.0657150872203003, -1.263612003268349, -1.0698717986774495, -1.8982852058826525, -0.9164168011651034, -2.043798581395997, -1.8866145424134246, -2.40080154575195, -0.2603300135909293, -0.840084847659035, -1.4221033119974127, -1.6705278461173327, -1.8464966599520642, -1.717574702688684, -2.2943257898964995, -1.311439436984735, -1.6272282703822754, -0.43014941926163386, -1.0481546293715045, -0.9236701577636521, -1.067262752379696, -0.4774106925553081, -1.4567282145769176, -1.0436120032682716, -1.590118064382173, -0.11774584499530841, -0.4295392478503112, -0.6152278910026738, -0.4991834872575542, -1.0328375251922548, -0.06923397440538383, -0.41725783660160765, 0.9360314116197935, 0.24315459980728682, 0.07193926371094961, -0.4732882334333632, 0.18899015078433648, 0.7410938790846614, 0.24688210203387045, 1.7326387707255155, 0.7199747797749319, -0.11705407451721694, 0.06428579485763829, -0.9529305635691234, -1.356325155945093, -0.4204838876152308, 0.2664734718366315, 0.5926575270251279, -0.35012734182763244, -0.9075283301950816, -1.263908101505558, -1.0744454215576134, -1.6120608605181914, -0.3986591375065824, -0.27668837452972184, -1.1130593206567656, 1.5867907578360563, 1.2713697992837485, 0.29820354161351814, 0.95413133621999, 0.09504812745068254, 1.4835047463441136, 1.8768750348851355, 0.8092966984809425, 2.233213562430502, 2.4390038740281406, 1.4485324855952202, 2.681616366319692, 1.3298070373039115, 1.7233993819309557, 0.5991865173375754, 4.527256046295744, 2.972065799909737, 2.1591884944474935, 1.4254758113113437, 1.028501147377899, 0.3753339334879335, 0.9469382463518713, 0.17337204458815908, 1.1838247597531029, 1.3312199062139407, 0.4813126217997207, 1.8923574197643338, 2.093594042665135, 1.3120310549625709, 2.3150647822210924, 1.1672603296328208, 0.9578673645982758, 1.5949837643070497, 3.255426081252569, 2.869446081890442, 3.1594145339910207, 2.9220047958034314, 3.816780153594474, 2.3007105829090633, 2.0937904261547384, 2.9646323128630807, 3.8521676099468682, 3.5468883656364523, 3.9441822667713735, 3.0609712368718953, 4.464821837087102, 3.8726671750697306, 5.993745759508983, 4.372426744841557, 3.574024967087028, 3.0931451677222874, 2.0961440178616497, 2.807270349672889, 1.8236703496728859, 3.328937016339466, 3.8120490578067923, 2.598590422005625, 4.20233311117907, 3.235097204796604, 3.885029685772471, 2.7531472727498096, 4.46770176023994, 4.908249620580606, 3.5394992653355635, 5.70875254674703, 4.602577678278057, 5.492384853489708, 4.398179440581987, 6.045776096799322, 4.203383363371539, 3.7919970377757894, 4.672032254434811, 6.045743522161082, 6.434527275256714, 6.0657281809981125, 7.204921356384256, 5.281052400954889, 4.703722591388311, 5.98121834021664, 7.28496363997801, 6.084348880897656, 5.160981732629482, 5.602882665977928, 5.0476346619405765, 4.748833168876188, 5.846887836011707, 6.0964772234336575, 5.303641317414842, 6.354965354055046, 4.518257627026597, 4.37959197426129, 3.6580250666540324, 4.675590783109449, 6.285032587435138, 5.573708705837289, 7.026841778244332, 7.771881944974033, 7.2856005204507825, 6.172607593074693, 7.327431639995465, 5.512708137691335, 7.591673575479252, 8.015389161554006, 6.799168497821034, 8.498546342111366, 8.955330286581344, 7.89918211437877, 9.243756293447937, 7.815525066654004, 6.979009480107668, 8.126849637698795, 8.49367752722269, 8.593699604628348, 7.847873971403169, 7.10471929137355, 7.518788787850731, 6.205374001027461, 9.407745797841148, 9.90121642810418, 8.545493047745657, 9.481810631194204, 9.157992038732308, 8.749682049452101, 10.090977789773813, 10.631057815612863, 10.712878084479438, 4.707270349672905, 0.9507755043120802, 4.273937016339571, 2.378322981251852, 0.6644132068157621, 7.177270349672905, 11.477270349672906, 5.557270349672905, 12.957270349672905, -0.14177074621750624, -1.082117405429136, -2.2168205594180046, -0.15754446514191014, 1.7781036830062378, 12.957270349672905, 0.761815804218359]}, {"children_left": [1, 2, 3, 4, 5, 6, 7, -1, -1, 10, -1, -1, 13, 14, -1, -1, 17, -1, -1, 20, 21, 22, -1, -1, 25, -1, -1, 28, 29, -1, -1, 32, -1, -1, 35, 36, 37, 38, -1, -1, 41, -1, -1, 44, 45, -1, -1, 48, -1, -1, 51, 52, 53, -1, -1, 56, -1, -1, 59, 60, -1, -1, 63, -1, -1, 66, 67, 68, 69, 70, -1, -1, 73, -1, -1, 76, 77, -1, -1, 80, -1, -1, 83, 84, 85, -1, -1, 88, -1, -1, 91, 92, -1, -1, 95, -1, -1, 98, 99, 100, 101, -1, -1, 104, -1, -1, 107, 108, -1, -1, 111, -1, -1, 114, 115, 116, -1, -1, 119, -1, -1, 122, 123, -1, -1, 126, -1, -1, 129, 130, 131, 132, 133, 134, -1, -1, 137, -1, -1, 140, 141, -1, -1, 144, -1, -1, 147, 148, 149, -1, -1, 152, -1, -1, 155, 156, -1, -1, 159, -1, -1, 162, 163, 164, 165, -1, -1, 168, -1, -1, 171, 172, -1, -1, 175, -1, -1, 178, 179, 180, -1, -1, 183, -1, -1, 186, 187, -1, -1, 190, -1, -1, 193, 194, 195, 196, 197, -1, -1, 200, -1, -1, 203, 204, -1, -1, 207, -1, -1, 210, 211, 212, -1, -1, 215, -1, -1, 218, 219, -1, -1, 222, -1, -1, 225, 226, 227, 228, -1, -1, 231, -1, -1, 234, 235, -1, -1, 238, -1, -1, 241, 242, 243, -1, -1, 246, -1, -1, 249, 250, -1, -1, 253, -1, -1], "children_right": [128, 65, 34, 19, 12, 9, 8, -1, -1, 11, -1, -1, 16, 15, -1, -1, 18, -1, -1, 27, 24, 23, -1, -1, 26, -1, -1, 31, 30, -1, -1, 33, -1, -1, 50, 43, 40, 39, -1, -1, 42, -1, -1, 47, 46, -1, -1, 49, -1, -1, 58, 55, 54, -1, -1, 57, -1, -1, 62, 61, -1, -1, 64, -1, -1, 97, 82, 75, 72, 71, -1, -1, 74, -1, -1, 79, 78, -1, -1, 81, -1, -1, 90, 87, 86, -1, -1, 89, -1, -1, 94, 93, -1, -1, 96, -1, -1, 113, 106, 103, 102, -1, -1, 105, -1, -1, 110, 109, -1, -1, 112, -1, -1, 121, 118, 117, -1, -1, 120, -1, -1, 125, 124, -1, -1, 127, -1, -1, 192, 161, 146, 139, 136, 135, -1, -1, 138, -1, -1, 143, 142, -1, -1, 145, -1, -1, 154, 151, 150, -1, -1, 153, -1, -1, 158, 157, -1, -1, 160, -1, -1, 177, 170, 167, 166, -1, -1, 169, -1, -1, 174, 173, -1, -1, 176, -1, -1, 185, 182, 181, -1, -1, 184, -1, -1, 189, 188, -1, -1, 191, -1, -1, 224, 209, 202, 199, 198, -1, -1, 201, -1, -1, 206, 205, -1, -1, 208, -1, -1, 217, 214, 213, -1, -1, 216, -1, -1, 221, 220, -1, -1, 223, -1, -1, 240, 233, 230, 229, -1, -1, 232, -1, -1, 237, 236, -1, -1, 239, -1, -1, 248, 245, 244, -1, -1, 247, -1, -1, 252, 251, -1, -1, 254, -1, -1], "feature": [15, 15, 15, 15, 1, 2, 5, -2, -2, 7, -2, -2, 3, 0, -2, -2, 5, -2, -2, 15, 15, 15, -2, -2, 3, -2, -2, 7, 3, -2, -2, 3, -2, -2, 7, 15, 3, 5, -2, -2, 0, -2, -2, 3, 5, -2, -2, 6, -2, -2, 3, 15, 5, -2, -2, 5, -2, -2, 15, 3, -2, -2, 3, -2, -2, 15, 7, 15, 3, 5, -2, -2, 0, -2, -2, 6, 5, -2, -2, 7, -2, -2, 15, 3, 5, -2, -2, 3, -2, -2, 5, 15, -2, -2, 3, -2, -2, 7, 15, 5, 3, -2, -2, 3, -2, -2, 7, 5, -2, -2, 6, -2, -2, 5, 15, 3, -2, -2, 3, -2, -2, 5, 3, -2, -2, 3, -2, -2, 15, 7, 15, 15, 7, 5, -2, -2, 6, -2, -2, 7, 3, -2, -2, 6, -2, -2, 15, 3, 2, -2, -2, 7, -2, -2, 5, 3, -2, -2, 5, -2, -2, 15, 15, 5, 2, -2, -2, 5, -2, -2, 5, 3, -2, -2, 5, -2, -2, 5, 3, 15, -2, -2, 2, -2, -2, 15, 5, -2, -2, 3, -2, -2, 15, 7, 15, 3, 7, -2, -2, 5, -2, -2, 3, 5, -2, -2, 2, -2, -2, 15, 5, 3, -2, -2, 5, -2, -2, 3, 5, -2, -2, 0, -2, -2, 15, 7, 15, 3, -2, -2, 15, -2, -2, 15, 3, -2, -2, 15, -2, -2, 15, 5, 15, -2, -2, 5, -2, -2, 0, 1, -2, -2, 15, -2, -2], "threshold": [3.0173702239990234, 1.6040127277374268, 1.1102572083473206, 4.2115600081160665e-05, 40.72892761230469, -73.7935676574707, 14.5, -2.0, -2.0, 2012.5, -2.0, -2.0, 40.86334800720215, -73.9694595336914, -2.0, -2.0, 14.5, -2.0, -2.0, 0.8522869050502777, 0.15909837186336517, 0.15472419559955597, -2.0, -2.0, 40.76690864562988, -2.0, -2.0, 2012.5, 40.7691707611084, -2.0, -2.0, 40.76703453063965, -2.0, -2.0, 2012.5, 1.3855823874473572, 40.76963233947754, 7.5, -2.0, -2.0, -73.89384460449219, -2.0, -2.0, 40.769954681396484, 7.5, -2.0, -2.0, 8.5, -2.0, -2.0, 40.76894187927246, 1.3866142630577087, 7.5, -2.0, -2.0, 19.5, -2.0, -2.0, 1.3444000482559204, 40.779541015625, -2.0, -2.0, 40.7813606262207, -2.0, -2.0, 2.2985833883285522, 2012.5, 1.9391031861305237, 40.76963424682617, 7.5, -2.0, -2.0, -73.90177917480469, -2.0, -2.0, 8.5, 7.5, -2.0, -2.0, 2011.5, -2.0, -2.0, 1.874743103981018, 40.7698860168457, 7.5, -2.0, -2.0, 40.77801322937012, -2.0, -2.0, 7.5, 1.986201286315918, -2.0, -2.0, 40.772605895996094, -2.0, -2.0, 2012.5, 2.645171880722046, 7.5, 40.74807929992676, -2.0, -2.0, 40.77731132507324, -2.0, -2.0, 2011.5, 7.5, -2.0, -2.0, 8.5, -2.0, -2.0, 7.5, 2.6803005933761597, 40.7313117980957, -2.0, -2.0, 40.726497650146484, -2.0, -2.0, 19.5, 40.771711349487305, -2.0, -2.0, 40.77219772338867, -2.0, -2.0, 5.014612436294556, 2012.5, 3.8847590684890747, 3.3284066915512085, 2011.5, 7.5, -2.0, -2.0, 8.5, -2.0, -2.0, 2011.5, 40.76944351196289, -2.0, -2.0, 8.5, -2.0, -2.0, 4.551873207092285, 40.76146697998047, -73.96104431152344, -2.0, -2.0, 2011.5, -2.0, -2.0, 7.5, 40.75239562988281, -2.0, -2.0, 19.5, -2.0, -2.0, 4.044447660446167, 3.4459104537963867, 7.5, -74.02565002441406, -2.0, -2.0, 18.5, -2.0, -2.0, 7.5, 40.748451232910156, -2.0, -2.0, 19.5, -2.0, -2.0, 7.5, 40.74249076843262, 4.476678848266602, -2.0, -2.0, -73.94559097290039, -2.0, -2.0, 4.533037185668945, 18.5, -2.0, -2.0, 40.77593231201172, -2.0, -2.0, 6.393524408340454, 2012.5, 5.5212013721466064, 40.75657272338867, 2011.5, -2.0, -2.0, 7.5, -2.0, -2.0, 40.766828536987305, 7.5, -2.0, -2.0, -73.93091583251953, -2.0, -2.0, 5.644715070724487, 6.5, 40.72606658935547, -2.0, -2.0, 19.5, -2.0, -2.0, 40.76762008666992, 7.5, -2.0, -2.0, -73.91266250610352, -2.0, -2.0, 12.66968584060669, 2012.5, 7.622080326080322, 40.77455520629883, -2.0, -2.0, 8.955013275146484, -2.0, -2.0, 7.120868444442749, 40.774959564208984, -2.0, -2.0, 10.652163028717041, -2.0, -2.0, 13.849371433258057, 8.5, 12.677114009857178, -2.0, -2.0, 17.5, -2.0, -2.0, -73.9936637878418, 40.71311569213867, -2.0, -2.0, 22.240450859069824, -2.0, -2.0], "value": [2.903657583483703e-15, -1.7500990965867025, -2.9284474844834554, -3.4420072905231605, -1.6442568105183537, -0.8778432624320448, -0.63267568070338, 0.19118433949208274, -1.3976885565991675, -3.0131738129720294, -2.2627670808542177, -5.17059316781074, -1.848046985407019, -1.8702055095828918, -2.163804062928278, -1.4795495832307635, 4.40065683218926, 1.6219068321892607, 7.17940683218926, -3.5291934431507683, -3.816937869501209, -2.9873635344095124, -3.0578304997652297, 1.5554068321892587, -3.868687456406301, -3.7458165974521136, -4.225299260232686, -3.1539409644928846, -3.4078691801083436, -3.3075837659678435, -3.8433697227609107, -2.724044014830568, -2.5410011803060586, -3.3022675366432765, -2.27144635507365, -2.630387402443885, -2.850090855702082, -2.730226208535074, -3.2246113571438397, -2.636716549383404, -3.3652663165482544, -3.388488429874094, 2.022263975046402, -2.3319347158214367, -2.209498820365586, -2.7649254006557342, -2.1071700003488094, -2.862319215163962, -3.0650251724487014, -2.5154156109925627, -1.6870911089915817, -1.5155266550509499, -1.798728251649309, -2.5981994595586837, -1.6591755851798515, -1.1105687728160387, -0.9181424347806248, -1.7810940300229205, -2.396778852967613, -2.7900287171391702, -2.5946836846471912, -3.0091383521240243, -2.0248549033390435, -1.8276282921373255, -2.3355694528300592, -0.34139957490436973, -0.9492234997474926, -1.4268950305374895, -1.7458102205899662, -1.626176581900597, -2.2112314928617076, -1.5050391649313528, -2.200786556067655, -2.2197808516728443, 3.535490716697389, -1.087206394341133, -1.2500110899066468, -1.712691343645687, -1.160571040856719, -0.7630819055775596, -1.1023365902963473, 0.2110773797802523, -0.14678462137139822, -0.6751230406709112, -0.48018135816892027, -1.469788795195999, -0.28831522049850766, -1.4282181055533858, -1.1035427236866489, -1.6670237435673392, 0.25803409036667746, -0.582325095503152, -1.0718721447482593, -0.39820341768972667, 0.4223029192827775, 0.6408639923566077, -0.43459167958304445, 0.5152122265025079, -0.1135428757479957, -0.41023726241639646, -0.9545011095150274, -0.5679143222325168, -1.2618933349111416, -0.2887076038437855, -0.1630799384057337, -0.892877494864948, 0.23099686981692372, 0.06834230052540258, -0.44962382176169474, 0.17954064324512004, 0.7040391851304358, 0.23453799693217683, 1.6460068321892645, 1.5830866341828922, 0.6831538451659597, 0.26341513128855315, 0.8638494971476179, 0.0771101418819327, 1.2491883516539224, 2.4193626914097246, 0.938403018924322, 1.7822635042541497, 2.096309850615029, 2.390436014651396, 1.1669302930970724, 1.006703941254208, 1.2379265899068006, 0.20175236760265536, 4.300893243980894, 2.8234625099143846, 2.0512290697252604, 1.2855575736922524, 0.8355820987457696, 0.6559536782117237, 0.10269661354745117, 0.795669984096531, 1.3476221901778254, 0.7465200952425052, 2.5039945487630675, 1.605160875879035, 1.392622310068618, 1.5708742123630872, 0.8298290643867942, 2.2050487232265144, 1.531363197376311, 3.5843617610663765, 3.0020441300864142, 2.643250591646559, 2.9129881920425076, 2.7765500081668986, 4.117835728022242, 2.1397404042408015, 1.9468288513708676, 2.7203167005868316, 3.6595592294495205, 2.8685431656217575, 3.3301448375613214, 2.3957608303480153, 3.886061626580826, 4.226293208548471, 3.199567769907583, 4.153805407599797, 3.395323718732894, 2.855077410800828, 1.9113734390115233, 12.96608683218926, 1.891490860966238, 3.075750421836386, 3.523714456893784, 2.392165855083735, 3.9034145664167945, 2.977755330687751, 3.5765529752392133, 2.529835832794957, 4.154121785203006, 4.584161639387352, 3.2606722758835245, 5.4233149194097905, 4.372448794364239, 5.08190205077605, 4.469346559759227, 5.638130600090194, 3.9142027221293216, 3.7023178185038272, 5.030474409522126, 5.743456346053143, 5.298470165014324, 5.76926259467132, 4.607538682601181, 6.347474090943483, 6.649072802466652, 5.198936956857576, 6.920715457979474, 5.894855960595812, 5.021777707236404, 4.417507975513241, 4.837457426064003, 4.556356703838981, 5.576790832464043, 3.857152464959599, 2.9519152325289895, 4.179921478162321, 5.488988260316603, 5.884181016629904, 5.090745290354119, 6.139598593672783, 4.640961831501608, 4.482016728017738, 6.777087691959049, 7.4724507922948336, 6.921320494428272, 5.863977213420917, 6.9610600579957165, 5.2370727308067435, 7.212089896705274, 7.614619703476252, 6.459210072929976, 8.112669014871372, 8.497260065270186, 7.686420974639829, 8.819891234965526, 7.27998467086836, 7.308306323487439, -4.870004302714378, 8.201179141381973, 8.31095316767545, 7.866389301269617, 6.999261996611188, 7.36656107440541, 6.051295082138062, 8.880387761866157, 8.480706837502487, 9.5994091972259, 9.55671760778389, 9.01149830604504, 9.522333736961153, 7.902369238141697, 10.050993170539908, 10.113750047236753, 4.47190683218926, 0.9749434913406733, 3.7566474522195463, 6.970229832958982, -2.9472785398157857, 7.871821503211233, 1.346460666664969, -1.5559222705262068, 7.731703128485554, -0.1220665214002911, 4.0612282607606875, 0.43892111790354527, 10.09840683218926, -0.6532785572302565, -0.9015558725316413, 6.919179559461987]}, {"children_left": [1, 2, 3, 4, 5, 6, 7, -1, -1, 10, -1, -1, 13, 14, -1, -1, 17, -1, -1, 20, 21, 22, -1, -1, 25, -1, -1, 28, 29, -1, -1, 32, -1, -1, 35, 36, 37, 38, -1, -1, 41, -1, -1, 44, 45, -1, -1, 48, -1, -1, 51, 52, 53, -1, -1, 56, -1, -1, 59, 60, -1, -1, 63, -1, -1, 66, 67, 68, 69, 70, -1, -1, 73, -1, -1, 76, 77, -1, -1, 80, -1, -1, 83, 84, 85, -1, -1, 88, -1, -1, 91, 92, -1, -1, 95, -1, -1, 98, 99, 100, 101, -1, -1, 104, -1, -1, 107, 108, -1, -1, 111, -1, -1, 114, 115, 116, -1, -1, 119, -1, -1, 122, 123, -1, -1, 126, -1, -1, 129, 130, 131, 132, 133, 134, -1, -1, 137, -1, -1, 140, 141, -1, -1, 144, -1, -1, 147, 148, 149, -1, -1, 152, -1, -1, 155, 156, -1, -1, 159, -1, -1, 162, 163, 164, 165, -1, -1, 168, -1, -1, 171, 172, -1, -1, 175, -1, -1, 178, 179, 180, -1, -1, 183, -1, -1, 186, 187, -1, -1, 190, -1, -1, 193, 194, 195, 196, 197, -1, -1, 200, -1, -1, 203, 204, -1, -1, 207, -1, -1, 210, 211, 212, -1, -1, 215, -1, -1, 218, 219, -1, -1, 222, -1, -1, 225, 226, 227, 228, -1, -1, 231, -1, -1, 234, 235, -1, -1, 238, -1, -1, 241, 242, 243, -1, -1, 246, -1, -1, 249, 250, -1, -1, 253, -1, -1], "children_right": [128, 65, 34, 19, 12, 9, 8, -1, -1, 11, -1, -1, 16, 15, -1, -1, 18, -1, -1, 27, 24, 23, -1, -1, 26, -1, -1, 31, 30, -1, -1, 33, -1, -1, 50, 43, 40, 39, -1, -1, 42, -1, -1, 47, 46, -1, -1, 49, -1, -1, 58, 55, 54, -1, -1, 57, -1, -1, 62, 61, -1, -1, 64, -1, -1, 97, 82, 75, 72, 71, -1, -1, 74, -1, -1, 79, 78, -1, -1, 81, -1, -1, 90, 87, 86, -1, -1, 89, -1, -1, 94, 93, -1, -1, 96, -1, -1, 113, 106, 103, 102, -1, -1, 105, -1, -1, 110, 109, -1, -1, 112, -1, -1, 121, 118, 117, -1, -1, 120, -1, -1, 125, 124, -1, -1, 127, -1, -1, 192, 161, 146, 139, 136, 135, -1, -1, 138, -1, -1, 143, 142, -1, -1, 145, -1, -1, 154, 151, 150, -1, -1, 153, -1, -1, 158, 157, -1, -1, 160, -1, -1, 177, 170, 167, 166, -1, -1, 169, -1, -1, 174, 173, -1, -1, 176, -1, -1, 185, 182, 181, -1, -1, 184, -1, -1, 189, 188, -1, -1, 191, -1, -1, 224, 209, 202, 199, 198, -1, -1, 201, -1, -1, 206, 205, -1, -1, 208, -1, -1, 217, 214, 213, -1, -1, 216, -1, -1, 221, 220, -1, -1, 223, -1, -1, 240, 233, 230, 229, -1, -1, 232, -1, -1, 237, 236, -1, -1, 239, -1, -1, 248, 245, 244, -1, -1, 247, -1, -1, 252, 251, -1, -1, 254, -1, -1], "feature": [15, 15, 15, 15, 1, 2, 0, -2, -2, 5, -2, -2, 0, 6, -2, -2, 7, -2, -2, 15, 15, 15, -2, -2, 3, -2, -2, 7, 3, -2, -2, 3, -2, -2, 7, 15, 3, 5, -2, -2, 2, -2, -2, 3, 5, -2, -2, 6, -2, -2, 15, 3, 5, -2, -2, 3, -2, -2, 3, 5, -2, -2, 10, -2, -2, 15, 7, 15, 6, 3, -2, -2, 7, -2, -2, 6, 5, -2, -2, 7, -2, -2, 15, 3, 5, -2, -2, 2, -2, -2, 3, 5, -2, -2, 15, -2, -2, 7, 15, 6, 3, -2, -2, 7, -2, -2, 7, 5, -2, -2, 6, -2, -2, 5, 15, 3, -2, -2, 3, -2, -2, 5, 3, -2, -2, 15, -2, -2, 15, 7, 15, 15, 7, 5, -2, -2, 6, -2, -2, 7, 3, -2, -2, 6, -2, -2, 15, 7, 5, -2, -2, 6, -2, -2, 3, 2, -2, -2, 7, -2, -2, 15, 5, 3, 15, -2, -2, 2, -2, -2, 5, 3, -2, -2, 3, -2, -2, 5, 3, 15, -2, -2, 2, -2, -2, 5, 15, -2, -2, 3, -2, -2, 15, 7, 15, 3, 6, -2, -2, 5, -2, -2, 3, 5, -2, -2, 7, -2, -2, 15, 5, 3, -2, -2, 5, -2, -2, 3, 5, -2, -2, 5, -2, -2, 15, 15, 7, 3, -2, -2, 3, -2, -2, 7, 15, -2, -2, 15, -2, -2, 0, 3, 3, -2, -2, 5, -2, -2, 2, 5, -2, -2, 15, -2, -2], "threshold": [2.969097375869751, 1.6038227677345276, 1.0805043578147888, 4.2115600081160665e-05, 40.733192443847656, -73.7935676574707, -73.79364395141602, -2.0, -2.0, 18.5, -2.0, -2.0, -73.90149688720703, 3.5, -2.0, -2.0, 2013.5, -2.0, -2.0, 0.8486358225345612, 0.1576647311449051, 0.15472419559955597, -2.0, -2.0, 40.76690864562988, -2.0, -2.0, 2012.5, 40.7691707611084, -2.0, -2.0, 40.76703453063965, -2.0, -2.0, 2012.5, 1.34709632396698, 40.76963233947754, 7.5, -2.0, -2.0, -73.88909912109375, -2.0, -2.0, 40.77031898498535, 7.5, -2.0, -2.0, 8.5, -2.0, -2.0, 1.3437183499336243, 40.76894569396973, 7.5, -2.0, -2.0, 40.77927017211914, -2.0, -2.0, 40.773216247558594, 19.5, -2.0, -2.0, 0.5, -2.0, -2.0, 2.2576632499694824, 2012.5, 1.9391031861305237, 8.5, 40.76963806152344, -2.0, -2.0, 2011.5, -2.0, -2.0, 8.5, 7.5, -2.0, -2.0, 2011.5, -2.0, -2.0, 1.874554455280304, 40.7698860168457, 7.5, -2.0, -2.0, -73.93025588989258, -2.0, -2.0, 40.772151947021484, 7.5, -2.0, -2.0, 2.1173629760742188, -2.0, -2.0, 2012.5, 2.603450059890747, 8.5, 40.786874771118164, -2.0, -2.0, 2011.5, -2.0, -2.0, 2011.5, 7.5, -2.0, -2.0, 8.5, -2.0, -2.0, 7.5, 2.562040686607361, 40.74293518066406, -2.0, -2.0, 40.72675704956055, -2.0, -2.0, 19.5, 40.77392768859863, -2.0, -2.0, 2.5319931507110596, -2.0, -2.0, 4.79290771484375, 2012.5, 3.8404428958892822, 3.3284066915512085, 2011.5, 7.5, -2.0, -2.0, 8.5, -2.0, -2.0, 2011.5, 40.77109336853027, -2.0, -2.0, 8.5, -2.0, -2.0, 4.3328588008880615, 2011.5, 7.5, -2.0, -2.0, 8.5, -2.0, -2.0, 40.75223731994629, -73.96503448486328, -2.0, -2.0, 2011.5, -2.0, -2.0, 3.7141367197036743, 7.5, 40.72801399230957, 3.2761940956115723, -2.0, -2.0, -73.95901870727539, -2.0, -2.0, 18.5, 40.77431869506836, -2.0, -2.0, 40.775657653808594, -2.0, -2.0, 7.5, 40.74249076843262, 4.283365488052368, -2.0, -2.0, -73.94549942016602, -2.0, -2.0, 19.5, 4.045456171035767, -2.0, -2.0, 40.72881889343262, -2.0, -2.0, 6.2080254554748535, 2012.5, 5.359858274459839, 40.759878158569336, 8.5, -2.0, -2.0, 7.5, -2.0, -2.0, 40.768287658691406, 7.5, -2.0, -2.0, 2011.5, -2.0, -2.0, 5.523070812225342, 7.5, 40.72059631347656, -2.0, -2.0, 19.5, -2.0, -2.0, 40.75899696350098, 6.5, -2.0, -2.0, 7.5, -2.0, -2.0, 12.68505859375, 7.350639343261719, 2012.5, 40.77010154724121, -2.0, -2.0, 40.76582908630371, -2.0, -2.0, 2012.5, 8.88344955444336, -2.0, -2.0, 10.652163028717041, -2.0, -2.0, -73.99266815185547, 40.84478950500488, 40.76698875427246, -2.0, -2.0, 1.5, -2.0, -2.0, -73.97151184082031, 16.0, -2.0, -2.0, 13.304481983184814, -2.0, -2.0], "value": [9.268333215791081e-16, -1.69221825829679, -2.782318885284424, -3.299140185788464, -1.5620439699924373, -0.897767249751543, -0.706235224437932, -0.7581882803851004, 7.502347615214655, -2.8625151223234293, -3.79096785724629, -1.1744192406454992, -1.7759116594426803, -1.8768536945125869, -2.5044767599729387, -1.6512486466579146, -0.4740182327718442, -0.8648287620085846, 5.231815494084565, -3.3880676964073917, -3.630006568441952, -2.8369456267671467, -2.9049389747769774, 2.220713413656719, -3.679996902451048, -3.563113176228379, -4.0182074140429584, -3.0393085391354018, -3.279409970595373, -3.187589425193967, -3.679529090743065, -2.6330697706216912, -2.4671552225004327, -3.148572831419193, -2.1919669145026646, -2.527834818222053, -2.772170107255844, -2.6595603766056484, -3.1501560294194797, -2.5670016152552195, -3.258955480649817, -3.282051495808168, 1.9211507762940827, -2.257332257400265, -2.142320382006716, -2.6562075858914835, -2.045226486341827, -2.7696729282181316, -2.941239900584667, -2.4690060558530256, -1.6435382933027622, -1.9631737535709857, -1.7904007825939552, -2.542555243807264, -1.6592893586052118, -2.704613589144315, -2.5279353024937485, -2.894795948659948, -1.2846505721293893, -1.1470122442305752, -0.9698225902504958, -1.7759223285084502, -2.063739199845245, -1.9949958534106442, -2.5010638931206723, -0.3597737845587252, -0.9371774640354793, -1.3865319833369572, -1.659127378689408, -1.817641806013107, -1.710041933659342, -2.229870456057066, -1.3406798062759018, -1.638164756872478, -0.5129124372330477, -1.0623033330747236, -1.2206245501600952, -1.6620318595793606, -1.1372691250139142, -0.7495708560870618, -1.057800132830728, 0.13177223210183062, -0.18451098313180953, -0.6409136218530902, -0.4551029294328623, -1.3962993554361969, -0.27262276983651, -1.3571406304828753, -1.384898350780001, 1.3939578700768087, 0.19704581001935115, 0.3731542106678015, -0.48396288659295705, 0.5564153062970796, -0.5205404083357715, -0.7178129127029549, -0.12311129866036238, 0.4029737451468757, -0.1870222864587022, -0.47059823928322875, -0.6414127258887826, -0.5878019966131026, -1.4565349665487493, -0.13849282130213622, -0.47298667481739687, 0.8473218103608059, 0.1440503814922573, -0.0032386730129511407, -0.48994470069757307, 0.10134744703975385, 0.5675442702169732, 0.11802450860560211, 1.4730851123059843, 1.4076147576974372, 0.51158965085683, 0.004083274554759018, 0.5157106177426113, -0.27523759929374453, 0.9227704543196922, 1.8488210316352696, 0.6792473150256101, 1.6010798846686038, 1.8984675367748416, 2.148000935130613, 0.943396278382295, 0.8599793286232463, 0.38157187362849343, 1.234253930638077, 4.015166592008714, 2.488601852381895, 1.7612772303079733, 1.1404675397098327, 0.7514764026410121, 0.5798255402466843, 0.04379085447944013, 0.7110298448720708, 1.2426869031870074, 0.6692992836486116, 2.346241969936805, 1.4887079621603918, 1.290719873258947, 1.446727979263001, 0.7391606525209378, 2.0489946210653738, 1.4047421636977493, 3.350859609801306, 2.6468453633812166, 2.331674441893377, 2.109196377102445, 1.4735038369433189, 2.2669267115701763, 2.9682589450957604, 2.171435345971022, 4.514476167206859, 3.0678457364470755, 3.5224603839902637, 3.3614444599770814, 4.525222920666365, 2.5923891566382844, 2.379286819162007, 3.2079521760335483, 3.742671266262917, 2.898179214793397, 2.0339329858214357, 2.8518579204291497, 2.171707195370861, 3.3937666281991663, 1.7832236785421853, 1.573152564267082, 2.632322308269471, 3.1098588683795034, 3.581356201607604, 3.824525713896247, 2.618050853140735, 2.3953661796355705, 2.6464290584055052, 1.3753193178782717, 4.621677340706097, 3.6595031172148262, 4.30742344466756, 3.756026766097865, 5.028965384053079, 3.244669817229235, 3.070402257150279, 4.39525563558194, 4.901018244300133, 5.268079807686755, 4.591755823664794, 5.659612193662373, 4.162864880766732, 5.213764359036108, 3.741261421437344, 6.351465629526205, 5.292777751117745, 4.468837809429218, 3.9226663275391376, 4.307863787260122, 4.050978958112898, 4.81431999846142, 3.352382854370649, 2.44275927637621, 3.6400234490456715, 4.955832011573424, 5.285208450972533, 4.470537999589933, 5.541083141948916, 4.146900888379464, 3.8729467364898316, 4.900840827050923, 6.775769714084201, 6.276133218946797, 5.291458765065251, 6.445845916140196, 4.784975513596449, 6.612347281969163, 7.052538444525892, 5.824155936183652, 7.530167588020421, 7.939651006903967, 7.15756760908437, 8.140576497725954, 6.945083146621141, 6.138886192918605, 7.257226069721367, 7.658931708063264, 7.748346634363243, 7.071464058711033, 6.399389173291107, 6.780024919761265, 5.56627435657386, 8.478734026641849, 8.925993528431393, 7.6976846641085945, 8.557745941577636, 8.26448627668717, 7.880953244630611, 9.069633634763436, 9.598242343935661, 9.671629598439862, 4.2483114905797965, 0.856022882354552, 3.8851453405348764, 2.1410735552747897, 4.203217190693364, -1.394029819728481, 10.512618124523211, 4.885815757028698, 11.919318716396837, -0.13985299430747122, -0.9972140333801391, -2.0534657560251293, -0.13656448159533335, 1.6105924604658928, 11.91931871639684, 0.6734355281085339]}, {"children_left": [1, 2, 3, 4, 5, 6, 7, -1, -1, 10, -1, -1, 13, 14, -1, -1, 17, -1, -1, 20, 21, 22, -1, -1, 25, -1, -1, 28, 29, -1, -1, 32, -1, -1, 35, 36, 37, 38, -1, -1, 41, -1, -1, 44, 45, -1, -1, 48, -1, -1, 51, 52, 53, -1, -1, 56, -1, -1, 59, 60, -1, -1, 63, -1, -1, 66, 67, 68, 69, 70, -1, -1, 73, -1, -1, 76, 77, -1, -1, 80, -1, -1, 83, 84, 85, -1, -1, 88, -1, -1, 91, 92, -1, -1, 95, -1, -1, 98, 99, 100, 101, -1, -1, 104, -1, -1, 107, 108, -1, -1, 111, -1, -1, 114, 115, 116, -1, -1, 119, -1, -1, 122, 123, -1, -1, 126, -1, -1, 129, 130, 131, 132, 133, 134, -1, -1, 137, -1, -1, 140, 141, -1, -1, 144, -1, -1, 147, 148, 149, -1, -1, 152, -1, -1, 155, 156, -1, -1, 159, -1, -1, 162, 163, 164, 165, -1, -1, 168, -1, -1, 171, 172, -1, -1, 175, -1, -1, 178, 179, 180, -1, -1, 183, -1, -1, 186, 187, -1, -1, 190, -1, -1, 193, 194, 195, 196, 197, -1, -1, 200, -1, -1, 203, 204, -1, -1, 207, -1, -1, 210, 211, 212, -1, -1, 215, -1, -1, 218, 219, -1, -1, 222, -1, -1, 225, 226, 227, 228, -1, -1, 231, -1, -1, 234, 235, -1, -1, 238, -1, -1, 241, 242, 243, -1, -1, 246, -1, -1, 249, 250, -1, -1, 253, -1, -1], "children_right": [128, 65, 34, 19, 12, 9, 8, -1, -1, 11, -1, -1, 16, 15, -1, -1, 18, -1, -1, 27, 24, 23, -1, -1, 26, -1, -1, 31, 30, -1, -1, 33, -1, -1, 50, 43, 40, 39, -1, -1, 42, -1, -1, 47, 46, -1, -1, 49, -1, -1, 58, 55, 54, -1, -1, 57, -1, -1, 62, 61, -1, -1, 64, -1, -1, 97, 82, 75, 72, 71, -1, -1, 74, -1, -1, 79, 78, -1, -1, 81, -1, -1, 90, 87, 86, -1, -1, 89, -1, -1, 94, 93, -1, -1, 96, -1, -1, 113, 106, 103, 102, -1, -1, 105, -1, -1, 110, 109, -1, -1, 112, -1, -1, 121, 118, 117, -1, -1, 120, -1, -1, 125, 124, -1, -1, 127, -1, -1, 192, 161, 146, 139, 136, 135, -1, -1, 138, -1, -1, 143, 142, -1, -1, 145, -1, -1, 154, 151, 150, -1, -1, 153, -1, -1, 158, 157, -1, -1, 160, -1, -1, 177, 170, 167, 166, -1, -1, 169, -1, -1, 174, 173, -1, -1, 176, -1, -1, 185, 182, 181, -1, -1, 184, -1, -1, 189, 188, -1, -1, 191, -1, -1, 224, 209, 202, 199, 198, -1, -1, 201, -1, -1, 206, 205, -1, -1, 208, -1, -1, 217, 214, 213, -1, -1, 216, -1, -1, 221, 220, -1, -1, 223, -1, -1, 240, 233, 230, 229, -1, -1, 232, -1, -1, 237, 236, -1, -1, 239, -1, -1, 248, 245, 244, -1, -1, 247, -1, -1, 252, 251, -1, -1, 254, -1, -1], "feature": [15, 15, 15, 15, 3, 5, 6, -2, -2, 3, -2, -2, 1, 6, -2, -2, 5, -2, -2, 15, 0, 3, -2, -2, 5, -2, -2, 7, 3, -2, -2, 3, -2, -2, 7, 15, 3, 5, -2, -2, 0, -2, -2, 3, 7, -2, -2, 6, -2, -2, 3, 5, 15, -2, -2, 5, -2, -2, 15, 3, -2, -2, 3, -2, -2, 7, 15, 15, 3, 5, -2, -2, 0, -2, -2, 6, 3, -2, -2, 7, -2, -2, 15, 5, 3, -2, -2, 3, -2, -2, 7, 3, -2, -2, 6, -2, -2, 15, 15, 3, 5, -2, -2, 15, -2, -2, 3, 5, -2, -2, 5, -2, -2, 5, 15, 5, -2, -2, 3, -2, -2, 3, 5, -2, -2, 5, -2, -2, 15, 7, 15, 15, 6, 3, -2, -2, 7, -2, -2, 5, 3, -2, -2, 5, -2, -2, 15, 7, 5, -2, -2, 6, -2, -2, 3, 2, -2, -2, 6, -2, -2, 15, 5, 3, 1, -2, -2, 15, -2, -2, 5, 11, -2, -2, 3, -2, -2, 5, 15, 3, -2, -2, 3, -2, -2, 15, 5, -2, -2, 3, -2, -2, 15, 7, 15, 3, 6, -2, -2, 5, -2, -2, 3, 7, -2, -2, 0, -2, -2, 15, 5, 3, -2, -2, 5, -2, -2, 3, 5, -2, -2, 5, -2, -2, 15, 15, 7, 3, -2, -2, 3, -2, -2, 7, 15, -2, -2, 15, -2, -2, 0, 3, 3, -2, -2, 5, -2, -2, 15, 0, -2, -2, 15, -2, -2], "threshold": [2.8925284147262573, 1.6038227677345276, 1.1116483807563782, 4.2115600081160665e-05, 40.72892761230469, 1.5, 2.5, -2.0, -2.0, 40.72839164733887, -2.0, -2.0, 40.86334800720215, 3.5, -2.0, -2.0, 14.5, -2.0, -2.0, 0.8965872228145599, -73.9372673034668, 40.76766777038574, -2.0, -2.0, 16.5, -2.0, -2.0, 2012.5, 40.767173767089844, -2.0, -2.0, 40.76801109313965, -2.0, -2.0, 2012.5, 1.3855823874473572, 40.76963233947754, 7.5, -2.0, -2.0, -73.89384460449219, -2.0, -2.0, 40.769954681396484, 2011.5, -2.0, -2.0, 8.5, -2.0, -2.0, 40.76894187927246, 7.5, 1.294562041759491, -2.0, -2.0, 18.5, -2.0, -2.0, 1.3444000482559204, 40.77627182006836, -2.0, -2.0, 40.7813606262207, -2.0, -2.0, 2012.5, 2.2192723751068115, 1.8470894694328308, 40.76957893371582, 7.5, -2.0, -2.0, -73.8645133972168, -2.0, -2.0, 8.5, 40.77490425109863, -2.0, -2.0, 2011.5, -2.0, -2.0, 2.48144268989563, 7.5, 40.72344398498535, -2.0, -2.0, 40.77365493774414, -2.0, -2.0, 2011.5, 40.77581596374512, -2.0, -2.0, 8.5, -2.0, -2.0, 2.1736764907836914, 1.874554455280304, 40.7698860168457, 7.5, -2.0, -2.0, 1.7124909162521362, -2.0, -2.0, 40.772151947021484, 7.5, -2.0, -2.0, 19.5, -2.0, -2.0, 7.5, 2.455373764038086, 6.5, -2.0, -2.0, 40.7313117980957, -2.0, -2.0, 40.771711349487305, 19.5, -2.0, -2.0, 18.5, -2.0, -2.0, 4.79290771484375, 2012.5, 3.809090256690979, 3.2939929962158203, 8.5, 40.77095985412598, -2.0, -2.0, 2011.5, -2.0, -2.0, 7.5, 40.74985313415527, -2.0, -2.0, 19.5, -2.0, -2.0, 4.138912916183472, 2011.5, 7.5, -2.0, -2.0, 8.5, -2.0, -2.0, 40.75212287902832, -73.96550369262695, -2.0, -2.0, 8.5, -2.0, -2.0, 3.685142755508423, 7.5, 40.748640060424805, 40.7492733001709, -2.0, -2.0, 3.0963871479034424, -2.0, -2.0, 18.5, 0.5, -2.0, -2.0, 40.775657653808594, -2.0, -2.0, 7.5, 4.324371337890625, 40.74905967712402, -2.0, -2.0, 40.72861099243164, -2.0, -2.0, 4.2431700229644775, 19.5, -2.0, -2.0, 40.77871894836426, -2.0, -2.0, 6.210861682891846, 2012.5, 5.359858274459839, 40.756235122680664, 8.5, -2.0, -2.0, 7.5, -2.0, -2.0, 40.77028846740723, 2011.5, -2.0, -2.0, -73.92253494262695, -2.0, -2.0, 5.523070812225342, 7.5, 40.72059631347656, -2.0, -2.0, 19.5, -2.0, -2.0, 40.75899696350098, 6.5, -2.0, -2.0, 7.5, -2.0, -2.0, 12.66968584060669, 7.350639343261719, 2012.5, 40.77010154724121, -2.0, -2.0, 40.76582908630371, -2.0, -2.0, 2012.5, 8.4026460647583, -2.0, -2.0, 10.952142238616943, -2.0, -2.0, -73.99266815185547, 40.84478950500488, 40.76698875427246, -2.0, -2.0, 1.5, -2.0, -2.0, 14.266132831573486, -73.8303451538086, -2.0, -2.0, 22.240450859069824, -2.0, -2.0], "value": [9.86107907705121e-16, -1.6541188859183817, -2.643202941019907, -3.105455166400739, -1.4839417714928087, -0.7879498148079848, 1.4105447130977657, 8.00280449758834, 0.21195202500857022, -0.9958074792645288, -1.0522401211814318, 6.707248142392903, -1.669006770575963, -1.689668098216437, -2.229456693271044, -1.501129498029895, 4.157487624037178, 1.5840529286802258, 6.73092231939413, -3.1838501965931494, -3.409918212754533, -3.43937908219976, -3.334845265415874, -3.7720709703235658, -2.2787807389154757, -2.654014883054974, -1.5513329502769493, -2.787758881369961, -3.0296434052317878, -2.9321550716297335, -3.386498848602132, -2.374273261334002, -2.2045175981061393, -2.963548825699602, -2.0475010747602482, -2.3715636138546823, -2.57064559512269, -2.462111739985812, -2.906651191644853, -2.3779911975949606, -3.0350183074147874, -3.0560317606663405, 1.8250932374793778, -2.1025584744933234, -1.9920068384433047, -2.1256774769037627, -1.6231226074696024, -2.5821110335606225, -2.7658246027777924, -2.2678311007995515, -1.520109332211183, -1.364282165771887, -2.1165304050066083, -2.5000403504748077, -1.892494379308611, -1.2325459940847299, -0.9540211026997275, -1.773434295089218, -2.163625880927721, -2.5131769745657397, -2.2786394842583855, -2.664649103722576, -1.8334520761762043, -1.6535548363700996, -2.115860592296384, -0.39749756763928057, -0.8694011998610222, -1.3496031928594365, -1.6603018645378784, -1.5543016632207753, -2.082323909288191, -1.4441992009586513, -2.075616765601244, -2.0916199891341223, 3.1814421649490225, -1.1204067902397121, -1.2755673885408314, -1.1902212472328537, -1.700903265396452, -0.810085593637434, -1.0785972980925178, -0.042403908963493143, -0.2590962030995117, -0.5836953318210495, -1.099196737021883, -0.1787800818518885, -1.2635568540165223, -0.46941809189118106, -0.33533683234852296, -0.9651831843024731, -0.005099792880311676, -0.1484389600544197, -0.04752359798337905, -0.6076542591568119, 0.4071136487744917, -0.030310533586259354, 1.2633640465588858, 0.39956469930221644, -0.2712109598919826, -0.6088679407604477, -0.43234778296122844, -1.3264843876643893, -0.25899163134467934, -1.2892835989587246, -1.6219563089857847, -1.0606489836405053, 0.08035096210723647, 0.24842861542191064, -0.6294089085844091, 0.4301696456880197, -0.5951726050977498, -0.46603968250745936, -1.1866013905612767, 1.158590996160342, 0.3405527843394471, -0.10524042221930484, -0.2618409936443309, 0.44724639376818703, 0.6623881860132385, 1.4336050241355642, 0.4035641364219302, 1.3359114177978222, 1.5689864861330458, 1.8506964546556843, 0.8721571939727576, 0.5545968805482673, 0.8496865513946416, 0.018439860486857983, 3.7076880460062323, 2.2830829193360236, 1.5904100464162698, 0.9889666438692718, 0.6083363790413782, 0.39992135704031073, 0.5359388956384424, -0.07979641349932948, 1.002464281399406, 0.6130015336936087, 2.120899693832783, 1.3673190055678974, 0.7051997243213042, 1.1556632546594068, 0.35994826421787735, 1.5298637966601754, 1.7938610992393573, 0.9473192477152408, 2.4881425471254666, 2.0313760758282062, 1.788261546913796, 1.1665622103271664, 1.9398377661196822, 2.697475883021677, 1.9492007084366854, 4.072283049025057, 2.7757999998454084, 3.1432736840734052, 2.9974334279077484, 4.073498020697618, 2.386584419654358, 2.148875311015351, 2.8501001779876582, 3.4733513378452785, 2.673894349946108, 1.8636085355821355, 2.402517297391691, 2.8320803428327057, 1.481135692677641, 1.467190904013764, 0.7803851002478763, 1.7183837674281408, 2.8684389393737244, 3.3164572841325466, 3.5054913284110003, 2.1337964042946798, 2.185138018060188, 2.426587379621113, 1.220054919039902, 4.363713100110567, 3.446321802095065, 3.043341006783312, 3.5126343923000864, 2.6332135495265403, 4.0844560397073995, 5.102109337256483, 3.6325610439425713, 4.629562235086754, 4.179770921941203, 4.554342051351719, 3.4203441956942138, 5.223332116019524, 5.480555301164798, 3.91652007194804, 6.03389234804978, 5.029571330001647, 4.2478121751160325, 3.7265330111621875, 4.1221228278300215, 3.86237299957001, 4.637178095653537, 3.221504189069555, 2.3723841278465483, 3.4993480103984744, 4.7112818607668405, 5.006767290488433, 4.740062323287802, 5.743463747120783, 3.8957844382377416, 3.8390597123027037, 7.491259374427582, 6.437495648630836, 5.962326557999457, 5.026885826811996, 6.123553620333206, 4.545726737916663, 6.281729917870738, 6.6999115222995185, 5.532948139374387, 7.153316055474214, 7.540297810357638, 6.799689228630187, 7.730259102424108, 6.601706703209516, 5.831941883272678, 6.898223253746407, 7.2778243149449136, 7.36387778306359, 6.719645894259116, 6.080209670841937, 6.4423979275889645, 5.288587864085864, 8.057232006669434, 8.483053737531286, 7.311365917580425, 8.132391381884993, 7.854296417630263, 7.33599792342139, 8.415443118037663, 9.118330226738728, 9.16759749043551, 1.8858959160508064, 0.8750985961383263, 3.6908880735081326, 2.0340198775110507, 3.9930563311586966, -1.3243283287420577, 9.986987218297049, 4.641524969177263, 11.323352780576997, -0.025954036620011063, 2.3862716478585164, 1.194660830162719, 11.323352780576997, -0.7329857027602695, -0.9927190780404026, 6.53954880508346]}, {"children_left": [1, 2, 3, 4, 5, 6, 7, -1, -1, 10, -1, -1, 13, 14, -1, -1, 17, -1, -1, 20, 21, 22, -1, -1, 25, -1, -1, 28, 29, -1, -1, 32, -1, -1, 35, 36, 37, 38, -1, -1, 41, -1, -1, 44, 45, -1, -1, 48, -1, -1, 51, 52, 53, -1, -1, 56, -1, -1, 59, 60, -1, -1, 63, -1, -1, 66, 67, 68, 69, 70, -1, -1, 73, -1, -1, 76, 77, -1, -1, 80, -1, -1, 83, 84, 85, -1, -1, 88, -1, -1, 91, 92, -1, -1, 95, -1, -1, 98, 99, 100, 101, -1, -1, 104, -1, -1, 107, 108, -1, -1, 111, -1, -1, 114, 115, 116, -1, -1, 119, -1, -1, 122, 123, -1, -1, 126, -1, -1, 129, 130, 131, 132, 133, 134, -1, -1, 137, -1, -1, 140, 141, -1, -1, 144, -1, -1, 147, 148, 149, -1, -1, 152, -1, -1, 155, 156, -1, -1, 159, -1, -1, 162, 163, 164, 165, -1, -1, 168, -1, -1, 171, 172, -1, -1, 175, -1, -1, 178, 179, 180, -1, -1, 183, -1, -1, 186, 187, -1, -1, 190, -1, -1, 193, 194, 195, 196, 197, -1, -1, 200, -1, -1, 203, 204, -1, -1, 207, -1, -1, 210, 211, 212, -1, -1, 215, -1, -1, 218, 219, -1, -1, 222, -1, -1, 225, 226, 227, 228, -1, -1, 231, -1, -1, 234, 235, -1, -1, 238, -1, -1, 241, 242, 243, -1, -1, 246, -1, -1, 249, 250, -1, -1, 253, -1, -1], "children_right": [128, 65, 34, 19, 12, 9, 8, -1, -1, 11, -1, -1, 16, 15, -1, -1, 18, -1, -1, 27, 24, 23, -1, -1, 26, -1, -1, 31, 30, -1, -1, 33, -1, -1, 50, 43, 40, 39, -1, -1, 42, -1, -1, 47, 46, -1, -1, 49, -1, -1, 58, 55, 54, -1, -1, 57, -1, -1, 62, 61, -1, -1, 64, -1, -1, 97, 82, 75, 72, 71, -1, -1, 74, -1, -1, 79, 78, -1, -1, 81, -1, -1, 90, 87, 86, -1, -1, 89, -1, -1, 94, 93, -1, -1, 96, -1, -1, 113, 106, 103, 102, -1, -1, 105, -1, -1, 110, 109, -1, -1, 112, -1, -1, 121, 118, 117, -1, -1, 120, -1, -1, 125, 124, -1, -1, 127, -1, -1, 192, 161, 146, 139, 136, 135, -1, -1, 138, -1, -1, 143, 142, -1, -1, 145, -1, -1, 154, 151, 150, -1, -1, 153, -1, -1, 158, 157, -1, -1, 160, -1, -1, 177, 170, 167, 166, -1, -1, 169, -1, -1, 174, 173, -1, -1, 176, -1, -1, 185, 182, 181, -1, -1, 184, -1, -1, 189, 188, -1, -1, 191, -1, -1, 224, 209, 202, 199, 198, -1, -1, 201, -1, -1, 206, 205, -1, -1, 208, -1, -1, 217, 214, 213, -1, -1, 216, -1, -1, 221, 220, -1, -1, 223, -1, -1, 240, 233, 230, 229, -1, -1, 232, -1, -1, 237, 236, -1, -1, 239, -1, -1, 248, 245, 244, -1, -1, 247, -1, -1, 252, 251, -1, -1, 254, -1, -1], "feature": [15, 15, 15, 15, 1, 5, 6, -2, -2, 1, -2, -2, 6, 5, -2, -2, 3, -2, -2, 15, 0, 7, -2, -2, 15, -2, -2, 7, 3, -2, -2, 3, -2, -2, 7, 15, 3, 5, -2, -2, 2, -2, -2, 6, 3, -2, -2, 7, -2, -2, 15, 3, 5, -2, -2, 3, -2, -2, 3, 5, -2, -2, 5, -2, -2, 15, 7, 15, 6, 3, -2, -2, 7, -2, -2, 3, 5, -2, -2, 2, -2, -2, 15, 5, 3, -2, -2, 3, -2, -2, 3, 5, -2, -2, 10, -2, -2, 7, 15, 6, 3, -2, -2, 7, -2, -2, 6, 3, -2, -2, 7, -2, -2, 5, 15, 3, -2, -2, 3, -2, -2, 3, 5, -2, -2, 5, -2, -2, 15, 7, 15, 15, 5, 3, -2, -2, 5, -2, -2, 5, 3, -2, -2, 3, -2, -2, 15, 7, 3, -2, -2, 6, -2, -2, 6, 3, -2, -2, 7, -2, -2, 15, 15, 3, 5, -2, -2, 5, -2, -2, 3, 5, -2, -2, 5, -2, -2, 5, 3, 15, -2, -2, 15, -2, -2, 15, 5, -2, -2, 3, -2, -2, 15, 7, 15, 5, 3, -2, -2, 5, -2, -2, 7, 3, -2, -2, 6, -2, -2, 15, 5, 3, -2, -2, 5, -2, -2, 3, 5, -2, -2, 5, -2, -2, 15, 7, 15, 3, -2, -2, 15, -2, -2, 15, 3, -2, -2, 15, -2, -2, 15, 1, 5, -2, -2, 3, -2, -2, 0, 1, -2, -2, 15, -2, -2], "threshold": [3.126785159111023, 1.6782900094985962, 1.1555945873260498, 4.2115600081160665e-05, 40.71612548828125, 1.5, 7.5, -2.0, -2.0, 40.71524429321289, -2.0, -2.0, 2.5, 10.5, -2.0, -2.0, 40.86334800720215, -2.0, -2.0, 0.9022572338581085, -73.9372673034668, 2012.5, -2.0, -2.0, 0.01792960986495018, -2.0, -2.0, 2012.5, 40.76976776123047, -2.0, -2.0, 40.76897621154785, -2.0, -2.0, 2012.5, 1.4432178139686584, 40.768394470214844, 7.5, -2.0, -2.0, -73.88909912109375, -2.0, -2.0, 8.5, 40.76995086669922, -2.0, -2.0, 2011.5, -2.0, -2.0, 1.4232867360115051, 40.76851272583008, 7.5, -2.0, -2.0, 40.780012130737305, -2.0, -2.0, 40.77013397216797, 7.5, -2.0, -2.0, 19.5, -2.0, -2.0, 2.358547568321228, 2012.5, 2.029292941093445, 8.5, 40.76861381530762, -2.0, -2.0, 2011.5, -2.0, -2.0, 40.781145095825195, 7.5, -2.0, -2.0, -73.9936637878418, -2.0, -2.0, 1.9801326394081116, 7.5, 40.75132942199707, -2.0, -2.0, 40.77264976501465, -2.0, -2.0, 40.773969650268555, 7.5, -2.0, -2.0, 0.5, -2.0, -2.0, 2012.5, 2.7256628274917603, 8.5, 40.77821350097656, -2.0, -2.0, 2011.5, -2.0, -2.0, 8.5, 40.767866134643555, -2.0, -2.0, 2011.5, -2.0, -2.0, 7.5, 2.6803005933761597, 40.7313117980957, -2.0, -2.0, 40.743736267089844, -2.0, -2.0, 40.77376747131348, 19.5, -2.0, -2.0, 18.5, -2.0, -2.0, 5.126523971557617, 2012.5, 4.059186697006226, 3.5237571001052856, 7.5, 40.73684501647949, -2.0, -2.0, 18.5, -2.0, -2.0, 7.5, 40.74083709716797, -2.0, -2.0, 40.770742416381836, -2.0, -2.0, 4.551873207092285, 2011.5, 40.762855529785156, -2.0, -2.0, 8.5, -2.0, -2.0, 8.5, 40.75583839416504, -2.0, -2.0, 2011.5, -2.0, -2.0, 4.044447660446167, 3.5364532470703125, 40.7742977142334, 7.5, -2.0, -2.0, 17.5, -2.0, -2.0, 40.76962471008301, 7.5, -2.0, -2.0, 19.5, -2.0, -2.0, 7.5, 40.741416931152344, 4.476678848266602, -2.0, -2.0, 4.5309014320373535, -2.0, -2.0, 4.707679510116577, 18.5, -2.0, -2.0, 40.76565742492676, -2.0, -2.0, 6.54900598526001, 2012.5, 6.011368274688721, 7.5, 40.72822380065918, -2.0, -2.0, 19.5, -2.0, -2.0, 2010.5, 40.796072006225586, -2.0, -2.0, 8.5, -2.0, -2.0, 5.644715070724487, 6.5, 40.782283782958984, -2.0, -2.0, 15.5, -2.0, -2.0, 40.760589599609375, 7.5, -2.0, -2.0, 7.5, -2.0, -2.0, 12.66968584060669, 2012.5, 7.771745204925537, 40.774635314941406, -2.0, -2.0, 9.218897819519043, -2.0, -2.0, 7.120868444442749, 40.774959564208984, -2.0, -2.0, 10.652163028717041, -2.0, -2.0, 13.849371433258057, 40.680519104003906, 1.5, -2.0, -2.0, 40.84478950500488, -2.0, -2.0, -73.9936637878418, 40.71311569213867, -2.0, -2.0, 22.240450859069824, -2.0, -2.0], "value": [1.1281227912959584e-15, -1.4430960212077704, -2.4493393013859803, -2.9143996372261762, -1.409744682918167, -0.5557335601725676, 2.546211314498448, 5.05737321501828, -2.057585503121242, -0.8454756638506297, -0.9777335267967293, 5.039999237250834, -1.5474660876397026, -2.242414985520866, -3.1411455721140245, -1.8344386008173927, -1.3958533468383867, -1.4170444928826784, 3.9496132428353192, -2.9819594225786146, -3.23487503713287, -3.262223367044623, -3.4058133024055715, -3.0261876242693453, -2.1756662761518553, -3.388096768793443, -1.966219646036159, -2.602536467725396, -2.838416832088719, -2.7504014569095836, -3.2259922703350004, -2.201839062301038, -2.0521845224509496, -2.7774570362734083, -1.830915500460283, -2.147114904933761, -2.3533725376611785, -2.2424066231693467, -2.692413724838225, -2.157355809219842, -2.799627973706349, -2.817699879085164, 1.7338385756054095, -1.8735160403046873, -2.029509624946308, -1.9261605199632135, -2.489375052770354, -1.5643169601124614, -1.8709449391094934, -0.7214752288995059, -1.316872138166957, -1.6049056462322935, -1.4497859960407078, -2.155335132786045, -1.3255949490115515, -2.2327997229589314, -2.060629746385669, -2.4739183318367406, -0.9763911304607746, -0.8178604804278651, -1.5733866315381446, -0.676845749719829, -1.6609815681484876, -1.5553424282592447, -2.069786287009857, -0.14301928943104025, -0.6898797227893806, -1.1079839348455325, -1.362531650574754, -1.51599215388091, -1.4071972098324739, -1.8939071822422013, -1.0493745246272952, -1.3236973475177054, -0.28380608179834993, -0.7904976257008243, -0.7200794843815728, -1.1984024042992432, -0.6225461038737048, -1.416425912070131, 11.731205359721544, -1.434510686859391, 0.016700235702672536, -0.36204898949739855, -1.1465248993103827, -0.9886853269758721, -1.3274749386222575, -0.22685541724598426, -0.037765444412015875, -1.0069727667071795, 0.38002353052721993, 0.5323073743794209, -0.24227643960267067, 0.6975706480788206, -0.3219507898707132, -0.21668734937073034, -0.9681992893337229, 0.5802577018072146, 0.02610023043614933, -0.25308019193380743, -0.4198146438397409, -0.3391370416188015, -0.8725467541621409, 0.07314594835635808, -0.2265707176890308, 0.9437010702267079, 0.34478731634902415, 0.1663731808364252, 0.30789519818322464, -0.23965851563266394, 0.7002166265625679, 0.36501922607731335, 1.6736572406248462, 1.5221409913339203, 0.7020418274387846, 0.24699027697088421, 0.8043417455298448, 0.07092318125456087, 1.1156652743236246, 1.7261531002370336, 0.7638351605284213, 1.7060403285441543, 1.9198848518911966, 2.195117583006599, 1.2428286676339653, 0.8931871444443009, 1.1702965462208312, 0.41805487369915323, 3.837949638461954, 2.6040802090666255, 1.9288648782734192, 1.3090088598143002, 0.9580178363772387, 0.34679409057077765, 0.8512576803303462, 0.15002899857788052, 1.1044410075718147, 1.3671295091669808, 0.7035243845921925, 1.6413822275280232, 0.975394745674689, 1.5722833746590785, 0.6685828335799101, 1.8135470765603372, 2.018802200048684, 1.1276252204687864, 2.7933416415286327, 2.418620856809931, 2.206534171784519, 2.451280551047212, 1.7330949732337884, 3.0578892336596164, 2.3417109424593745, 4.619480996427058, 3.189775219380571, 2.9014692295797433, 3.2443573298029915, 2.458664274345221, 3.759172869302343, 3.1611238774006436, 5.333833851346534, 3.7683740086982067, 3.031902092051943, 2.6285099444074533, 2.820680574337422, 1.8632973488019333, 3.083078711657173, 1.7633383899119093, 2.153827495480673, 1.2290871260740572, 3.435294239696394, 3.673300857662276, 2.7802441754544667, 3.938381843048668, 2.664661161136961, 2.9360772593586733, 2.0144555631991894, 4.74846544655206, 3.8258008922945232, 4.526705628204412, 3.8191493665862257, 5.051332709989591, 3.3733180880995164, 2.9741329496127755, 3.762523598124101, 5.025935619841599, 4.6689119913924895, 5.075236547296151, 4.0940766675615246, 5.79545370118081, 6.196834917101899, 4.846222334405992, 6.043980016090633, 5.225868546581406, 4.4976826678340815, 4.182366030798256, 3.405695911707455, 4.1529583036483855, 3.0849479003974314, 4.457233284373643, 4.79254436485701, 3.8305863470769026, 5.196768961050055, 4.742386084544422, 4.897423563672968, 3.1532519234769523, 5.611569558337428, 5.229593572421945, 6.4329615280504, 6.551408460700574, 5.960495983243519, 5.07132538686957, 5.350789174786332, 3.6798286095340687, 6.220630500225476, 6.7357520171622225, 5.810231489479324, 7.030179720391097, 7.437823537845135, 6.684230869634488, 7.721770345494683, 6.381594110170461, 5.63025149269446, 6.69804194200149, 7.135432786398827, 7.241392858196278, 6.878802620623972, 6.1815185717114565, 6.513199948497108, 5.363209773510406, 7.704762528936642, 7.395738787381868, 8.365367272229062, 8.293144673140887, 7.79320373900735, 8.274985830965045, 6.75762058258275, 8.632926553847865, 8.687745091226478, 3.759558580888649, 0.8313436663314113, 3.245213137724156, 10.63783890179437, 11.032183666387864, 10.440666519497622, 2.3580980460357313, 0.9306356946102329, 6.878395492216474, -0.1206048575981225, 3.5165696195695677, 0.11630770261899066, 9.183672814487196, -0.58246828327021, -0.8052564684537998, 6.212571364829286]}, {"children_left": [1, 2, 3, 4, 5, 6, 7, -1, -1, 10, -1, -1, 13, 14, -1, -1, 17, -1, -1, 20, 21, 22, -1, -1, 25, -1, -1, 28, 29, -1, -1, 32, -1, -1, 35, 36, 37, 38, -1, -1, 41, -1, -1, 44, 45, -1, -1, 48, -1, -1, 51, 52, 53, -1, -1, 56, -1, -1, 59, 60, -1, -1, 63, -1, -1, 66, 67, 68, 69, 70, -1, -1, 73, -1, -1, 76, 77, -1, -1, 80, -1, -1, 83, 84, 85, -1, -1, 88, -1, -1, 91, 92, -1, -1, 95, -1, -1, 98, 99, 100, 101, -1, -1, 104, -1, -1, 107, 108, -1, -1, 111, -1, -1, 114, 115, 116, -1, -1, 119, -1, -1, 122, 123, -1, -1, 126, -1, -1, 129, 130, 131, 132, 133, 134, -1, -1, 137, -1, -1, 140, 141, -1, -1, 144, -1, -1, 147, 148, 149, -1, -1, 152, -1, -1, 155, 156, -1, -1, 159, -1, -1, 162, 163, 164, 165, -1, -1, 168, -1, -1, 171, 172, -1, -1, 175, -1, -1, 178, 179, 180, -1, -1, 183, -1, -1, 186, 187, -1, -1, 190, -1, -1, 193, 194, 195, 196, 197, -1, -1, 200, -1, -1, 203, 204, -1, -1, 207, -1, -1, 210, 211, 212, -1, -1, 215, -1, -1, 218, 219, -1, -1, 222, -1, -1, 225, 226, 227, 228, -1, -1, 231, -1, -1, 234, 235, -1, -1, 238, -1, -1, 241, 242, 243, -1, -1, 246, -1, -1, 249, 250, -1, -1, 253, -1, -1], "children_right": [128, 65, 34, 19, 12, 9, 8, -1, -1, 11, -1, -1, 16, 15, -1, -1, 18, -1, -1, 27, 24, 23, -1, -1, 26, -1, -1, 31, 30, -1, -1, 33, -1, -1, 50, 43, 40, 39, -1, -1, 42, -1, -1, 47, 46, -1, -1, 49, -1, -1, 58, 55, 54, -1, -1, 57, -1, -1, 62, 61, -1, -1, 64, -1, -1, 97, 82, 75, 72, 71, -1, -1, 74, -1, -1, 79, 78, -1, -1, 81, -1, -1, 90, 87, 86, -1, -1, 89, -1, -1, 94, 93, -1, -1, 96, -1, -1, 113, 106, 103, 102, -1, -1, 105, -1, -1, 110, 109, -1, -1, 112, -1, -1, 121, 118, 117, -1, -1, 120, -1, -1, 125, 124, -1, -1, 127, -1, -1, 192, 161, 146, 139, 136, 135, -1, -1, 138, -1, -1, 143, 142, -1, -1, 145, -1, -1, 154, 151, 150, -1, -1, 153, -1, -1, 158, 157, -1, -1, 160, -1, -1, 177, 170, 167, 166, -1, -1, 169, -1, -1, 174, 173, -1, -1, 176, -1, -1, 185, 182, 181, -1, -1, 184, -1, -1, 189, 188, -1, -1, 191, -1, -1, 224, 209, 202, 199, 198, -1, -1, 201, -1, -1, 206, 205, -1, -1, 208, -1, -1, 217, 214, 213, -1, -1, 216, -1, -1, 221, 220, -1, -1, 223, -1, -1, 240, 233, 230, 229, -1, -1, 232, -1, -1, 237, 236, -1, -1, 239, -1, -1, 248, 245, 244, -1, -1, 247, -1, -1, 252, 251, -1, -1, 254, -1, -1], "feature": [15, 15, 15, 15, 3, 2, 6, -2, -2, 5, -2, -2, 2, 1, -2, -2, 2, -2, -2, 15, 15, 15, -2, -2, 3, -2, -2, 7, 3, -2, -2, 5, -2, -2, 7, 15, 3, 1, -2, -2, 0, -2, -2, 3, 5, -2, -2, 0, -2, -2, 15, 3, 3, -2, -2, 15, -2, -2, 3, 5, -2, -2, 12, -2, -2, 7, 15, 15, 6, 3, -2, -2, 7, -2, -2, 5, 5, -2, -2, 5, -2, -2, 15, 5, 3, -2, -2, 5, -2, -2, 7, 5, -2, -2, 6, -2, -2, 15, 15, 3, 5, -2, -2, 2, -2, -2, 5, 3, -2, -2, 5, -2, -2, 15, 5, 3, -2, -2, 5, -2, -2, 5, 3, -2, -2, 5, -2, -2, 15, 7, 15, 15, 6, 5, -2, -2, 7, -2, -2, 7, 3, -2, -2, 6, -2, -2, 5, 2, 1, -2, -2, 3, -2, -2, 7, 3, -2, -2, 6, -2, -2, 15, 3, 5, 2, -2, -2, 5, -2, -2, 12, 0, -2, -2, 15, -2, -2, 5, 3, 2, -2, -2, 2, -2, -2, 3, 15, -2, -2, 15, -2, -2, 15, 7, 15, 3, 5, -2, -2, 5, -2, -2, 3, 7, -2, -2, 0, -2, -2, 15, 3, 5, -2, -2, 5, -2, -2, 3, 5, -2, -2, 5, -2, -2, 15, 15, 7, 3, -2, -2, 3, -2, -2, 7, 15, -2, -2, 15, -2, -2, 0, 3, 3, -2, -2, 2, -2, -2, 3, 7, -2, -2, 2, -2, -2], "threshold": [2.93855357170105, 1.6038227677345276, 1.0805043578147888, 4.2115600081160665e-05, 40.733192443847656, -74.04413604736328, 3.0, -2.0, -2.0, 14.5, -2.0, -2.0, -73.94413375854492, 40.76193618774414, -2.0, -2.0, -73.94257354736328, -2.0, -2.0, 0.7925636768341064, 0.265362024307251, 0.2645212262868881, -2.0, -2.0, 40.76690864562988, -2.0, -2.0, 2012.5, 40.7691707611084, -2.0, -2.0, 7.5, -2.0, -2.0, 2012.5, 1.337620198726654, 40.76840591430664, 40.748565673828125, -2.0, -2.0, -73.90878295898438, -2.0, -2.0, 40.77031898498535, 7.5, -2.0, -2.0, -73.84453582763672, -2.0, -2.0, 1.3872178792953491, 40.76930618286133, 40.74686050415039, -2.0, -2.0, 1.2999496459960938, -2.0, -2.0, 40.77353286743164, 19.5, -2.0, -2.0, 0.5, -2.0, -2.0, 2012.5, 2.2192723751068115, 1.8866945505142212, 8.5, 40.76963806152344, -2.0, -2.0, 2011.5, -2.0, -2.0, 7.5, 1.5, -2.0, -2.0, 18.5, -2.0, -2.0, 2.5368579626083374, 7.5, 40.72563171386719, -2.0, -2.0, 18.5, -2.0, -2.0, 2011.5, 7.5, -2.0, -2.0, 8.5, -2.0, -2.0, 2.1736764907836914, 1.8683056235313416, 40.7698860168457, 7.5, -2.0, -2.0, -73.93025588989258, -2.0, -2.0, 7.5, 40.74248504638672, -2.0, -2.0, 18.5, -2.0, -2.0, 2.5280288457870483, 6.5, 40.7474308013916, -2.0, -2.0, 18.5, -2.0, -2.0, 7.5, 40.7313117980957, -2.0, -2.0, 19.5, -2.0, -2.0, 4.79290771484375, 2012.5, 3.8404057025909424, 3.3284066915512085, 8.5, 7.5, -2.0, -2.0, 2011.5, -2.0, -2.0, 2011.5, 40.77419090270996, -2.0, -2.0, 8.5, -2.0, -2.0, 7.5, -73.95802307128906, 40.74807357788086, -2.0, -2.0, 40.771467208862305, -2.0, -2.0, 2011.5, 40.7626895904541, -2.0, -2.0, 8.5, -2.0, -2.0, 3.7141367197036743, 40.774301528930664, 7.5, -73.95760345458984, -2.0, -2.0, 19.5, -2.0, -2.0, 0.5, -73.92686080932617, -2.0, -2.0, 3.089473843574524, -2.0, -2.0, 7.5, 40.74249076843262, -73.9680061340332, -2.0, -2.0, -73.94549942016602, -2.0, -2.0, 40.77793884277344, 4.360339403152466, -2.0, -2.0, 4.102710008621216, -2.0, -2.0, 6.2080254554748535, 2012.5, 5.359858274459839, 40.759878158569336, 6.5, -2.0, -2.0, 7.5, -2.0, -2.0, 40.77028846740723, 2011.5, -2.0, -2.0, -73.93877792358398, -2.0, -2.0, 5.523070812225342, 40.76544952392578, 7.5, -2.0, -2.0, 6.5, -2.0, -2.0, 40.782676696777344, 6.5, -2.0, -2.0, 7.5, -2.0, -2.0, 12.68505859375, 7.350639343261719, 2012.5, 40.76962661743164, -2.0, -2.0, 40.77096748352051, -2.0, -2.0, 2012.5, 8.955013275146484, -2.0, -2.0, 10.952142238616943, -2.0, -2.0, -73.99089813232422, 40.84478950500488, 40.76698875427246, -2.0, -2.0, -73.93880844116211, -2.0, -2.0, 40.715187072753906, 2009.5, -2.0, -2.0, -73.97151184082031, -2.0, -2.0], "value": [5.9268358495614835e-16, -1.4684880558652804, -2.38590792547397, -2.8301703849279822, -1.3392574487722593, -0.7583737021811232, 3.1670406255860346, -4.28440105680971, 7.637905635023481, -0.8504655339175957, -0.2284720963362898, -1.400293987028143, -1.5262762933850902, -1.6967179197306095, -2.003745794321564, -1.282106153773551, -0.825214509548797, 3.3239727883362153, -1.052284461174345, -2.906494986153824, -3.1627289483874166, -2.550883537985197, -2.568451529284349, 4.428001005601342, -3.2414201916274665, -3.1299661343769967, -3.5589499606992288, -2.650882729102408, -2.861659571319099, -2.780655042272806, -3.20083615014162, -2.2964824014024843, -2.925785457091677, -2.1834067281907017, -1.8784380935856322, -2.1662762203740846, -2.3856534039070763, -2.2820854417550596, -2.489481139135024, -2.0905672225480387, -2.7936694695665705, -2.8077058020914047, 1.026552365944345, -1.940885652114876, -1.8425826716729334, -2.3202390800086894, -1.7530827170004701, -2.3775464050172683, -2.3848123309929443, 2.875718075396568, -1.408435853850168, -1.649703153963161, -1.5076883234630158, -1.8139943235094715, -1.260230410381849, -2.2710180374010815, -2.3928387587494964, -1.9695117520638152, -1.0296455589263243, -0.9058951787387264, -0.7384682841046677, -1.5033101318844346, -1.7486817572255973, -1.8138146185464779, -1.352937789706328, -0.3297863733939571, -0.7614040278308107, -1.2186637711582262, -1.4674934371906987, -1.6117842218305247, -1.5252639370854406, -1.9505345780640309, -1.1772245966390507, -1.4574350549832717, -0.39648553331353076, -0.9803934153124949, -1.4772637854530792, -1.1734251267153546, -1.6523769055652828, -0.8865628424418668, -0.7177725672031239, -1.2166162590235658, -0.2094316172951776, -0.4812370125054853, -0.9613542432877663, -0.1630826846159338, -1.1111347558687492, -0.37536452856692004, -0.18533140294567896, -0.7238808786444921, 0.057813856734899784, -0.08772898323672376, -0.5438552928749236, 0.00924733527492016, 0.4828132622082752, 0.10168109629865614, 1.2521486917252764, 0.3986124464433611, -0.24652161011080462, -0.5599443816866182, -0.39976518945315737, -1.1921208662063107, -0.24291853728569615, -1.180341275948558, -1.2075093899815348, 1.433835029891133, 0.06348411895422974, -0.6423986998825924, -0.323292407618511, -0.8240098846504064, 0.19591006926494392, 0.5007742323449286, -0.41230902836493966, 1.092892634062806, 0.7295053422814278, -0.1907228340800281, 0.3074645155476647, -0.6501818385069823, 0.8711189569746772, 1.1484420668506183, 0.36853976501177066, 1.474033483426711, 0.6955892038123311, 1.312207759286733, 0.4930339251537742, 1.6545280075565048, 1.9103536863727189, 1.003909614517806, 3.405137198118458, 2.106057208494766, 1.4809410916632082, 0.9514376119087038, 0.6199286832575495, 0.42824784885337863, -0.06346913867525311, 0.5397732087661582, 0.9891593036318057, 0.6380373822985802, 1.9894952122356264, 1.2764748523112943, 1.0889400760056231, 1.2191454285781884, 0.5252781114924657, 1.8070366260090482, 1.1975592640382304, 3.038630281420141, 2.2699584171606935, 1.6300236760859201, 1.4162758687580432, 1.756467557214253, 0.9380589129090977, 2.181066616716349, 2.85805367118297, 1.172054064199221, 2.4397419754318257, 2.2220177680271496, 2.483039350826421, 1.7169163806329393, 3.051540705631778, 2.336384955664542, 4.545705397527601, 3.182516491769979, 2.4693543236456277, 2.6486929061457727, 1.8038150644599507, 1.5967870062938179, 2.9479174911675146, 2.8763012135893486, 3.2147413221478454, 2.111042911443818, 1.7037021290466803, 1.5125399991247366, 1.4644383122187568, 6.262581581090489, 2.657123252032395, 1.442312248962986, 3.0225542041752242, 3.9651344536596533, 3.135825998730668, 3.702991894098892, 3.317302079568794, 4.594504416209418, 2.7726960118388027, 2.608304435130183, 3.858076542396927, 4.2059014244454325, 4.419925216593069, 4.07239811260616, 5.105652156368675, 3.090665950030848, 2.434066859851056, 3.510889367745897, 5.446692980986174, 4.538499466506439, 3.833030963158841, 3.36163605639569, 3.7026020742353873, 2.955517755589671, 3.8695330025774646, 2.856837076083359, 2.05405892499831, 3.1106910771849448, 4.25335057728355, 4.530200369127698, 4.278246328669492, 5.224820806932561, 3.4897756424127304, 3.4223164167409146, 6.238739088539087, 5.808257209341739, 5.379736073428384, 5.724765982095836, 4.874267092600623, 6.012447022397034, 4.62598694711005, 3.6354668001190085, 4.921079407567768, 6.455278467829074, 6.656544829146216, 5.963408479297685, 6.8572982653954995, 5.516613799961942, 4.48462772693404, 5.829688226610852, 6.568300432196872, 6.645058832313464, 6.0616573697694545, 5.483422618608516, 5.8180841513271035, 4.763299250985751, 7.272433754032562, 7.631756744457439, 6.5437367804437585, 7.3426757552426976, 7.0922034956348154, 6.774061064104905, 7.825977149188625, 8.23136082248488, 8.276508898992239, 1.603623191203834, 0.7283314336311777, 3.2733097500855113, 1.8057076669140444, 3.4773802167638155, -1.2988270685212437, 9.143718082771375, 4.065528946107577, 10.413265366937324, -0.15534159291546587, -2.042745753822292, -6.284423351862646, -1.2474312041897264, 0.5212749930700005, -0.5323976901582124, 3.190579123914806]}, {"children_left": [1, 2, 3, 4, 5, 6, 7, -1, -1, 10, -1, -1, 13, 14, -1, -1, 17, -1, -1, 20, 21, 22, -1, -1, 25, -1, -1, 28, 29, -1, -1, 32, -1, -1, 35, 36, 37, 38, -1, -1, 41, -1, -1, 44, 45, -1, -1, 48, -1, -1, 51, 52, 53, -1, -1, 56, -1, -1, 59, 60, -1, -1, 63, -1, -1, 66, 67, 68, 69, 70, -1, -1, 73, -1, -1, 76, 77, -1, -1, 80, -1, -1, 83, 84, 85, -1, -1, 88, -1, -1, 91, 92, -1, -1, 95, -1, -1, 98, 99, 100, 101, -1, -1, 104, -1, -1, 107, 108, -1, -1, 111, -1, -1, 114, 115, 116, -1, -1, 119, -1, -1, 122, 123, -1, -1, 126, -1, -1, 129, 130, 131, 132, 133, 134, -1, -1, 137, -1, -1, 140, 141, -1, -1, 144, -1, -1, 147, 148, 149, -1, -1, 152, -1, -1, 155, 156, -1, -1, 159, -1, -1, 162, 163, 164, 165, -1, -1, 168, -1, -1, 171, 172, -1, -1, 175, -1, -1, 178, 179, 180, -1, -1, 183, -1, -1, 186, 187, -1, -1, 190, -1, -1, 193, 194, 195, 196, 197, -1, -1, 200, -1, -1, 203, 204, -1, -1, 207, -1, -1, 210, 211, 212, -1, -1, 215, -1, -1, 218, 219, -1, -1, 222, -1, -1, 225, 226, 227, 228, -1, -1, 231, -1, -1, 234, 235, -1, -1, 238, -1, -1, 241, 242, 243, -1, -1, 246, -1, -1, 249, 250, -1, -1, 253, -1, -1], "children_right": [128, 65, 34, 19, 12, 9, 8, -1, -1, 11, -1, -1, 16, 15, -1, -1, 18, -1, -1, 27, 24, 23, -1, -1, 26, -1, -1, 31, 30, -1, -1, 33, -1, -1, 50, 43, 40, 39, -1, -1, 42, -1, -1, 47, 46, -1, -1, 49, -1, -1, 58, 55, 54, -1, -1, 57, -1, -1, 62, 61, -1, -1, 64, -1, -1, 97, 82, 75, 72, 71, -1, -1, 74, -1, -1, 79, 78, -1, -1, 81, -1, -1, 90, 87, 86, -1, -1, 89, -1, -1, 94, 93, -1, -1, 96, -1, -1, 113, 106, 103, 102, -1, -1, 105, -1, -1, 110, 109, -1, -1, 112, -1, -1, 121, 118, 117, -1, -1, 120, -1, -1, 125, 124, -1, -1, 127, -1, -1, 192, 161, 146, 139, 136, 135, -1, -1, 138, -1, -1, 143, 142, -1, -1, 145, -1, -1, 154, 151, 150, -1, -1, 153, -1, -1, 158, 157, -1, -1, 160, -1, -1, 177, 170, 167, 166, -1, -1, 169, -1, -1, 174, 173, -1, -1, 176, -1, -1, 185, 182, 181, -1, -1, 184, -1, -1, 189, 188, -1, -1, 191, -1, -1, 224, 209, 202, 199, 198, -1, -1, 201, -1, -1, 206, 205, -1, -1, 208, -1, -1, 217, 214, 213, -1, -1, 216, -1, -1, 221, 220, -1, -1, 223, -1, -1, 240, 233, 230, 229, -1, -1, 232, -1, -1, 237, 236, -1, -1, 239, -1, -1, 248, 245, 244, -1, -1, 247, -1, -1, 252, 251, -1, -1, 254, -1, -1], "feature": [15, 15, 15, 15, 3, 5, 4, -2, -2, 3, -2, -2, 6, 5, -2, -2, 3, -2, -2, 15, 0, 7, -2, -2, 5, -2, -2, 7, 3, -2, -2, 3, -2, -2, 7, 15, 3, 1, -2, -2, 2, -2, -2, 6, 3, -2, -2, 7, -2, -2, 3, 15, 3, -2, -2, 3, -2, -2, 15, 3, -2, -2, 5, -2, -2, 15, 7, 15, 5, 3, -2, -2, 3, -2, -2, 3, 7, -2, -2, 2, -2, -2, 15, 3, 5, -2, -2, 3, -2, -2, 3, 5, -2, -2, 5, -2, -2, 7, 15, 6, 3, -2, -2, 7, -2, -2, 3, 5, -2, -2, 5, -2, -2, 15, 5, 3, -2, -2, 3, -2, -2, 5, 3, -2, -2, 3, -2, -2, 15, 7, 15, 15, 5, 3, -2, -2, 5, -2, -2, 5, 3, -2, -2, 3, -2, -2, 15, 7, 3, -2, -2, 6, -2, -2, 6, 3, -2, -2, 7, -2, -2, 15, 5, 3, 1, -2, -2, 2, -2, -2, 5, 11, -2, -2, 3, -2, -2, 5, 3, 15, -2, -2, 15, -2, -2, 15, 3, -2, -2, 3, -2, -2, 15, 7, 15, 5, 2, -2, -2, 5, -2, -2, 3, 1, -2, -2, 0, -2, -2, 15, 3, 0, -2, -2, 5, -2, -2, 3, 5, -2, -2, 1, -2, -2, 15, 7, 15, 3, -2, -2, 15, -2, -2, 3, 15, -2, -2, 15, -2, -2, 15, 1, 7, -2, -2, 3, -2, -2, 0, 1, -2, -2, 15, -2, -2], "threshold": [3.126968264579773, 1.6782900094985962, 1.1555945873260498, 4.2115600081160665e-05, 40.71612548828125, 1.5, 1.5, -2.0, -2.0, 40.71524429321289, -2.0, -2.0, 2.5, 18.5, -2.0, -2.0, 40.86334800720215, -2.0, -2.0, 0.8965872228145599, -73.9372673034668, 2012.5, -2.0, -2.0, 16.5, -2.0, -2.0, 2012.5, 40.76976776123047, -2.0, -2.0, 40.76897621154785, -2.0, -2.0, 2012.5, 1.4432178139686584, 40.768394470214844, 40.748565673828125, -2.0, -2.0, -73.88909912109375, -2.0, -2.0, 8.5, 40.76995086669922, -2.0, -2.0, 2011.5, -2.0, -2.0, 40.76946449279785, 1.4696514010429382, 40.746835708618164, -2.0, -2.0, 40.74654960632324, -2.0, -2.0, 1.398510456085205, 40.780479431152344, -2.0, -2.0, 19.5, -2.0, -2.0, 2.358547568321228, 2012.5, 2.029292941093445, 7.5, 40.72431182861328, -2.0, -2.0, 40.76935386657715, -2.0, -2.0, 40.77022933959961, 2011.5, -2.0, -2.0, -73.99601364135742, -2.0, -2.0, 1.9801326394081116, 40.77264976501465, 7.5, -2.0, -2.0, 40.78547477722168, -2.0, -2.0, 40.77305603027344, 7.5, -2.0, -2.0, 19.5, -2.0, -2.0, 2012.5, 2.7256628274917603, 8.5, 40.772735595703125, -2.0, -2.0, 2011.5, -2.0, -2.0, 40.77685737609863, 7.5, -2.0, -2.0, 19.5, -2.0, -2.0, 2.737962245941162, 7.5, 40.7313117980957, -2.0, -2.0, 40.780052185058594, -2.0, -2.0, 7.5, 40.74384307861328, -2.0, -2.0, 40.77236366271973, -2.0, -2.0, 5.126523971557617, 2012.5, 4.060178279876709, 3.5237571001052856, 7.5, 40.73684501647949, -2.0, -2.0, 18.5, -2.0, -2.0, 7.5, 40.74083709716797, -2.0, -2.0, 40.770742416381836, -2.0, -2.0, 4.551873207092285, 2011.5, 40.762386322021484, -2.0, -2.0, 8.5, -2.0, -2.0, 8.5, 40.7623291015625, -2.0, -2.0, 2011.5, -2.0, -2.0, 4.044447660446167, 7.5, 40.748613357543945, 40.7396240234375, -2.0, -2.0, -73.99049377441406, -2.0, -2.0, 19.5, 0.5, -2.0, -2.0, 40.775800704956055, -2.0, -2.0, 7.5, 40.72861099243164, 4.462984561920166, -2.0, -2.0, 4.5309014320373535, -2.0, -2.0, 4.533037185668945, 40.781118392944336, -2.0, -2.0, 40.77792549133301, -2.0, -2.0, 6.688585996627808, 2012.5, 6.011368274688721, 7.5, -73.94729232788086, -2.0, -2.0, 19.5, -2.0, -2.0, 40.766273498535156, 40.76966667175293, -2.0, -2.0, -73.88082122802734, -2.0, -2.0, 5.644715070724487, 40.764862060546875, -73.95294570922852, -2.0, -2.0, 8.5, -2.0, -2.0, 40.76558303833008, 7.5, -2.0, -2.0, 40.71039581298828, -2.0, -2.0, 12.66968584060669, 2012.5, 7.919301748275757, 40.774545669555664, -2.0, -2.0, 9.218897819519043, -2.0, -2.0, 40.72400665283203, 8.95883560180664, -2.0, -2.0, 10.902310371398926, -2.0, -2.0, 13.849371433258057, 40.680519104003906, 2011.0, -2.0, -2.0, 40.85966682434082, -2.0, -2.0, -73.9936637878418, 40.71311569213867, -2.0, -2.0, 22.240450859069824, -2.0, -2.0], "value": [-5.884550239160598e-16, -1.3026932578531116, -2.211085996855671, -2.631343584198505, -1.2722945763336466, -0.48965828622973245, 2.4303243535903394, 0.5865651218769632, 8.422541856658814, -0.7624039174217178, -0.8883762796358255, 4.843366201106052, -1.3985057770878475, -2.057466653556065, -2.432399152158022, -1.1377103679231406, -1.2547443223006016, -1.2748131583648659, 3.80761957490976, -2.6923655872776706, -2.9262375740806426, -2.9527593276902007, -3.086645206453874, -2.733273335566269, -1.9079461948872722, -2.263120582823717, -1.219387258765093, -2.3540624526685368, -2.565182517501638, -2.4857891387309237, -2.9165047691708326, -1.9945108959212052, -1.8548565878091645, -2.5301789234291103, -1.6522395967157617, -1.9377874036579559, -2.124609557276007, -2.024185809665778, -2.213482534824104, -1.8461826493910007, -2.5284690981476245, -2.5448045766873655, 1.5694023755357478, -1.689969524427922, -1.8362100117923517, -1.7426751672794314, -2.2524055975734307, -1.4001023206975471, -1.6870962948116068, -0.6112294370774979, -1.1880263417277277, -1.050742699456814, -1.2713251220282489, -1.578944724277134, -1.0311855267991212, -0.6671448675700079, -1.0418231036149108, -0.3475374483715995, -1.7727669656074652, -2.0699922741685586, -1.9152497732291278, -2.269238555061547, -1.5012239281759374, -1.4011577706473655, -1.9089801422763135, -0.12922208581448594, -0.6226423503949231, -0.9998117144652462, -1.2304336593136063, -1.7178462249024258, -1.191960510667845, -1.7838463628111896, -1.1404745327623087, -0.9992170688530438, -1.6017671962769338, -0.7121669800863604, -0.5988342943111667, -0.7238809742065442, -0.22058863949249619, -1.0818905435093076, 6.4262506343014945, -1.0907917185867386, 0.014759297148096543, -0.3271778673350775, -0.1848403189730801, -1.0112306437699798, -0.029988433997155766, -0.9552053180175578, -0.7781017567571785, -1.277683789498165, 0.3427698354069021, 0.49417008820602737, -0.2132041409197966, 0.6457657934347129, -0.3003966520480434, -0.16552868979035748, -0.8298782816522933, 0.5231404563229534, 0.023402438940326762, -0.22956619926048316, -0.38538650403526054, -0.2887267854633213, -0.7371780978078151, 0.07530574546627986, -0.2012388227897932, 0.8785553394821524, 0.31211808645195926, 0.42364416909763997, -0.1665364923292463, 0.5639948244356644, -0.22920534332212006, -0.08394362537263753, -0.6833780564046792, 1.3718919602151338, 1.0432633367010968, 0.2958489319080317, 0.8715950108476013, 0.10806078429691815, 1.2147099143659421, 1.3708521049890425, 0.1828457206727188, 1.7726733626926137, 1.0489829683451206, 1.6591570715821442, 0.7038174568625136, 1.9310823545587537, 2.1507370431981414, 1.1978285728081166, 3.4654014358913052, 2.351479650588322, 1.7412222038727485, 1.1792352251267164, 0.8642409801872684, 0.29353291911050794, 0.7687253617673929, 0.10788699697928103, 1.000800447083919, 1.2506523510327654, 0.6194751094009786, 1.4770141272851494, 0.8600686280241343, 1.424354281011854, 0.5682573557625739, 1.63661702669556, 1.8261468163700951, 1.0040504360422002, 2.52633479018275, 2.185304793145534, 1.9916103533533542, 2.2164639338290577, 1.5671705073475815, 2.7684511302240002, 2.1142662115699653, 4.19241003210628, 2.8863817247494508, 2.6162380800681073, 2.878175334905284, 2.1299336592242737, 3.419909163874518, 2.864023927476304, 4.883553119643537, 3.4043867505169705, 2.7394562978059898, 2.0226361168559057, 2.503600554887257, 3.087370149260999, 1.8468597612167892, 1.6648359919670863, 2.885617604772698, 1.5086116539480894, 2.92504304340327, 3.2779632194852377, 3.4527077888163107, 2.1074595145911394, 2.169319038232966, 2.378922496432907, 1.282853819758821, 4.288257718145146, 3.45875131291797, 4.216050832526996, 3.366144094711913, 4.769704364589405, 3.106320457576567, 2.774658690484123, 3.4390521013370554, 4.537712717734314, 4.0884691894189675, 4.272922056265227, 2.7908108296966807, 5.04110473019139, 5.282727770655702, 3.951468779371404, 5.456420087266945, 4.772693127969202, 4.130560525952799, 3.774581338253078, 3.0486036595848427, 2.800590142720875, 3.88230167871445, 4.031508295770336, 4.348301688814616, 3.4394681841794115, 4.7685585254912874, 5.030048364007817, 5.344520413215239, 4.319462483587201, 4.2030398316660715, 4.0892765897787475, 9.57616525619013, 5.958646502673899, 5.382270237514196, 5.686714871442187, 5.837549932015532, 4.505173563617735, 4.76758202425003, 3.984884524173853, 5.099233507333145, 6.3811003201435765, 6.721265508665392, 6.061054625077222, 6.9804894138779465, 5.732213784055862, -4.891910647418008, 5.750099515421992, 6.528354252881527, 6.635451391213595, 6.316923917460541, 5.7305584514266625, 6.060701170616389, 4.949119721601506, 7.03504224683008, 6.747929013900233, 7.555800051158124, 7.582744993453374, 8.187826194124916, 8.084117325108041, 9.643454248540431, 7.307053234272936, 7.345436332652866, -4.476557968356358, 0.746190572226658, 2.94809390722039, 9.94163798229476, 9.751934210005775, 10.32104552687273, 2.1088686182114658, 1.4320222286132926, 9.892602098590459, -0.12216567255960233, 3.19672342328593, -0.015614620497298759, 8.550620162924645, -0.5436119069526857, -0.7497111117836618, 5.742413840392081]}, {"children_left": [1, 2, 3, 4, 5, 6, 7, -1, -1, 10, -1, -1, 13, 14, -1, -1, 17, -1, -1, 20, 21, 22, -1, -1, 25, -1, -1, 28, 29, -1, -1, 32, -1, -1, 35, 36, 37, 38, -1, -1, 41, -1, -1, 44, 45, -1, -1, 48, -1, -1, 51, 52, 53, -1, -1, 56, -1, -1, 59, 60, -1, -1, 63, -1, -1, 66, 67, 68, 69, 70, -1, -1, 73, -1, -1, 76, 77, -1, -1, 80, -1, -1, 83, 84, 85, -1, -1, 88, -1, -1, 91, 92, -1, -1, 95, -1, -1, 98, 99, 100, 101, -1, -1, 104, -1, -1, 107, 108, -1, -1, 111, -1, -1, 114, 115, 116, -1, -1, 119, -1, -1, 122, 123, -1, -1, 126, -1, -1, 129, 130, 131, 132, 133, 134, -1, -1, 137, -1, -1, 140, 141, -1, -1, 144, -1, -1, 147, 148, 149, -1, -1, 152, -1, -1, 155, 156, -1, -1, 159, -1, -1, 162, 163, 164, 165, -1, -1, 168, -1, -1, 171, 172, -1, -1, 175, -1, -1, 178, 179, 180, -1, -1, 183, -1, -1, 186, 187, -1, -1, 190, -1, -1, 193, 194, 195, 196, 197, -1, -1, 200, -1, -1, 203, 204, -1, -1, 207, -1, -1, 210, 211, 212, -1, -1, 215, -1, -1, 218, 219, -1, -1, 222, -1, -1, 225, 226, 227, 228, -1, -1, 231, -1, -1, 234, 235, -1, -1, 238, -1, -1, 241, 242, 243, -1, -1, 246, -1, -1, 249, 250, -1, -1, 253, -1, -1], "children_right": [128, 65, 34, 19, 12, 9, 8, -1, -1, 11, -1, -1, 16, 15, -1, -1, 18, -1, -1, 27, 24, 23, -1, -1, 26, -1, -1, 31, 30, -1, -1, 33, -1, -1, 50, 43, 40, 39, -1, -1, 42, -1, -1, 47, 46, -1, -1, 49, -1, -1, 58, 55, 54, -1, -1, 57, -1, -1, 62, 61, -1, -1, 64, -1, -1, 97, 82, 75, 72, 71, -1, -1, 74, -1, -1, 79, 78, -1, -1, 81, -1, -1, 90, 87, 86, -1, -1, 89, -1, -1, 94, 93, -1, -1, 96, -1, -1, 113, 106, 103, 102, -1, -1, 105, -1, -1, 110, 109, -1, -1, 112, -1, -1, 121, 118, 117, -1, -1, 120, -1, -1, 125, 124, -1, -1, 127, -1, -1, 192, 161, 146, 139, 136, 135, -1, -1, 138, -1, -1, 143, 142, -1, -1, 145, -1, -1, 154, 151, 150, -1, -1, 153, -1, -1, 158, 157, -1, -1, 160, -1, -1, 177, 170, 167, 166, -1, -1, 169, -1, -1, 174, 173, -1, -1, 176, -1, -1, 185, 182, 181, -1, -1, 184, -1, -1, 189, 188, -1, -1, 191, -1, -1, 224, 209, 202, 199, 198, -1, -1, 201, -1, -1, 206, 205, -1, -1, 208, -1, -1, 217, 214, 213, -1, -1, 216, -1, -1, 221, 220, -1, -1, 223, -1, -1, 240, 233, 230, 229, -1, -1, 232, -1, -1, 237, 236, -1, -1, 239, -1, -1, 248, 245, 244, -1, -1, 247, -1, -1, 252, 251, -1, -1, 254, -1, -1], "feature": [15, 15, 15, 15, 1, 0, 0, -2, -2, 7, -2, -2, 0, 2, -2, -2, 7, -2, -2, 15, 15, 15, -2, -2, 2, -2, -2, 7, 6, -2, -2, 5, -2, -2, 7, 15, 3, 5, -2, -2, 0, -2, -2, 6, 3, -2, -2, 7, -2, -2, 15, 3, 3, -2, -2, 2, -2, -2, 3, 5, -2, -2, 3, -2, -2, 7, 15, 15, 6, 5, -2, -2, 7, -2, -2, 6, 5, -2, -2, 7, -2, -2, 15, 5, 1, -2, -2, 5, -2, -2, 3, 5, -2, -2, 3, -2, -2, 15, 15, 3, 5, -2, -2, 2, -2, -2, 3, 5, -2, -2, 3, -2, -2, 3, 5, 15, -2, -2, 5, -2, -2, 15, 2, -2, -2, 5, -2, -2, 15, 7, 15, 15, 7, 3, -2, -2, 6, -2, -2, 7, 5, -2, -2, 6, -2, -2, 15, 7, 5, -2, -2, 6, -2, -2, 3, 2, -2, -2, 6, -2, -2, 15, 3, 5, 3, -2, -2, 5, -2, -2, 5, 0, -2, -2, 12, -2, -2, 5, 15, 3, -2, -2, 3, -2, -2, 5, 3, -2, -2, 3, -2, -2, 15, 7, 15, 5, 3, -2, -2, 5, -2, -2, 3, 7, -2, -2, 7, -2, -2, 15, 3, 5, -2, -2, 5, -2, -2, 3, 15, -2, -2, 4, -2, -2, 15, 15, 7, 3, -2, -2, 3, -2, -2, 7, 15, -2, -2, 15, -2, -2, 0, 3, 15, -2, -2, 2, -2, -2, 15, 0, -2, -2, 15, -2, -2], "threshold": [2.8925284147262573, 1.6018049716949463, 1.0805043578147888, 4.2115600081160665e-05, 40.733192443847656, -73.7935676574707, -73.79364395141602, -2.0, -2.0, 2010.5, -2.0, -2.0, -73.90149688720703, -73.90762710571289, -2.0, -2.0, 2013.5, -2.0, -2.0, 0.7925636768341064, 0.1576647311449051, 0.15472419559955597, -2.0, -2.0, -73.90987396240234, -2.0, -2.0, 2012.5, 8.5, -2.0, -2.0, 7.5, -2.0, -2.0, 2012.5, 1.2518554329872131, 40.76951026916504, 7.5, -2.0, -2.0, -73.90878295898438, -2.0, -2.0, 8.5, 40.766889572143555, -2.0, -2.0, 2011.5, -2.0, -2.0, 1.310732662677765, 40.768558502197266, 40.74765205383301, -2.0, -2.0, -73.94343566894531, -2.0, -2.0, 40.76916694641113, 7.5, -2.0, -2.0, 40.7813606262207, -2.0, -2.0, 2012.5, 2.2192723751068115, 1.8470894694328308, 8.5, 7.5, -2.0, -2.0, 2011.5, -2.0, -2.0, 8.5, 7.5, -2.0, -2.0, 2011.5, -2.0, -2.0, 2.48144268989563, 7.5, 40.7302188873291, -2.0, -2.0, 18.5, -2.0, -2.0, 40.77707099914551, 7.5, -2.0, -2.0, 40.8306884765625, -2.0, -2.0, 2.1736764907836914, 1.8574045300483704, 40.770843505859375, 7.5, -2.0, -2.0, -73.93025588989258, -2.0, -2.0, 40.772647857666016, 7.5, -2.0, -2.0, 40.78524589538574, -2.0, -2.0, 40.771711349487305, 7.5, 2.455373764038086, -2.0, -2.0, 19.5, -2.0, -2.0, 2.5595041513442993, -73.97458267211914, -2.0, -2.0, 19.5, -2.0, -2.0, 4.7218711376190186, 2012.5, 3.745803475379944, 3.2913424968719482, 2011.5, 40.78207206726074, -2.0, -2.0, 8.5, -2.0, -2.0, 2011.5, 7.5, -2.0, -2.0, 8.5, -2.0, -2.0, 4.111728668212891, 2011.5, 6.5, -2.0, -2.0, 8.5, -2.0, -2.0, 40.75212287902832, -73.96638107299805, -2.0, -2.0, 8.5, -2.0, -2.0, 3.617947816848755, 40.774295806884766, 7.5, 40.748640060424805, -2.0, -2.0, 18.5, -2.0, -2.0, 18.5, -73.92752456665039, -2.0, -2.0, 0.5, -2.0, -2.0, 7.5, 4.324371337890625, 40.74801826477051, -2.0, -2.0, 40.72861099243164, -2.0, -2.0, 19.5, 40.77793884277344, -2.0, -2.0, 40.73482894897461, -2.0, -2.0, 6.110197305679321, 2012.5, 5.336507797241211, 7.5, 40.74724197387695, -2.0, -2.0, 19.5, -2.0, -2.0, 40.770347595214844, 2011.5, -2.0, -2.0, 2011.5, -2.0, -2.0, 5.523070812225342, 40.77252769470215, 7.5, -2.0, -2.0, 6.5, -2.0, -2.0, 40.77295684814453, 5.887253284454346, -2.0, -2.0, 5.5, -2.0, -2.0, 12.66968584060669, 7.350639343261719, 2012.5, 40.76962661743164, -2.0, -2.0, 40.76572608947754, -2.0, -2.0, 2012.5, 8.4026460647583, -2.0, -2.0, 10.652163028717041, -2.0, -2.0, -73.99089813232422, 40.84478950500488, 15.16756534576416, -2.0, -2.0, -73.93880844116211, -2.0, -2.0, 14.266132831573486, -73.8303451538086, -2.0, -2.0, 22.240450859069824, -2.0, -2.0], "value": [-2.9084279483683975e-16, -1.348425781177538, -2.1550951650593473, -2.5552159137035244, -1.2086798475169618, -0.6772181758732748, -0.4972150423376385, -0.5464668548565572, 7.284571335651435, -2.523701932787219, -0.7777023704973267, -3.3551302957824047, -1.379786972428078, -1.4712850532083486, -1.4446082619515024, -5.278444262578459, -0.19969634082612664, -0.5589684790360502, 5.04567687703876, -2.62414940123009, -2.858539996215326, -2.103626091725667, -2.1681816274999024, 2.6983126077890742, -2.9154532684977568, -2.935499956363954, -1.3750993840792591, -2.3903275124627243, -2.581592681246442, -2.694325348097689, -2.357621764269795, -2.068734125914683, -2.6686133700371664, -1.9609454400632755, -1.69644487176542, -1.9566873775928186, -2.2348587739936234, -2.1375778135066588, -2.578103955430257, -2.054285546417952, -2.656315611504217, -2.66750692566505, 0.22824561345306238, -1.8090409132019705, -1.9392652560802415, -1.8418411307871152, -2.2914909398323187, -1.5521661373700444, -1.778191262960757, -0.8987297620527386, -1.2717263271890282, -1.5701745901584752, -1.436267364439188, -1.7433529510069519, -1.1774314138754827, -2.125347535101837, -2.152998557951902, -0.9982391751183205, -1.0146849129178346, -0.8833845514386804, -1.5952366820775479, -0.7542476583208375, -1.5494192989224438, -1.3877081014207229, -1.7912048816605126, -0.32734758182604995, -0.7100981814527224, -1.1016315408067558, -1.3599719491374598, -1.4902117960744607, -1.8660806103398344, -1.420254171868339, -1.0997906967092625, -1.3697200158977587, -0.35945282126771594, -0.909324199178105, -1.0517210361923148, -1.4461465869714885, -0.9768098255527595, -0.6245305251496753, -0.8689330538718822, 0.07422242258047118, -0.210562362226938, -0.4779087373186674, -0.9339265406882323, -0.28877648642040143, -1.1333846970008583, -0.37681792475793974, -0.20328050682237506, -0.6981028537363996, -0.0013658069993722993, 0.09257059708756947, -0.3970868555006523, 0.20725352677270562, -0.4767921399142168, -0.4882846287640886, 5.901539171764203, 0.319289028096857, -0.22705060400121263, -0.5236767931834516, -0.3833113004573352, -1.1082437200614472, -0.2380616831718545, -1.0988796239706584, -1.1244892005113896, 1.4588768330349793, 0.044614610223130936, 0.18759123484345652, -0.533396309151528, 0.329885146166567, -0.5557548274186823, -0.37843816904124783, -0.9197865536281874, 0.9397428251192496, 1.1041548838662396, 0.3334283931206334, -0.056271094152140815, 0.6177076543530532, 1.2869955648060847, 1.5336891464035058, 0.6767817525419054, 0.3458380359145046, 0.06046856877328707, 0.5170950982659506, -0.13830645015350393, 0.7302714752204656, 0.9225579417314151, 0.1261051218635691, 3.0224805437863846, 1.8259680557950697, 1.263147646419456, 0.7701891338290523, 0.49421483106905606, 0.34481031768734693, 0.4245977250312094, -0.31111188783121685, 0.9219373226569246, 0.44650578883099246, 1.8210104628767738, 1.075464117848839, 0.8973228207549642, 0.40776602305307713, 1.0165099771722135, 1.578434017729389, 1.0142291803572856, 2.745409592749668, 1.9423225593052091, 1.5804430120407251, 1.3843580549551775, 0.7725214397944776, 1.5094314514740037, 2.1312074260935834, 1.556331330994942, 3.2553145860262482, 2.2124831286140947, 2.552529601668057, 2.388707613210998, 3.5675385651152705, 1.8622250497626975, 1.6487310437689895, 2.2723582718032405, 2.7924424135808787, 2.1346011905235236, 2.299482536380278, 1.533291177522223, 1.969480376422538, 1.1326287007042857, 2.5052887677111375, 2.8908999614806348, 1.9154395939082594, 1.4268307830677462, 1.695394027669861, 1.6413494020806485, 4.878622474874328, 0.9451859222394021, 0.7218278126215583, 1.944805002988115, 3.4593321609546512, 2.7271949677972662, 2.426688759642169, 2.846633253431449, 2.097991464503405, 3.3418280620974197, 4.1619752717199345, 2.965644837849084, 3.6666681679736066, 3.9917985162499634, 4.177775883455393, 3.024716206781732, 3.007592135024473, 3.7974840966543444, 2.5761221732463646, 4.861088058484057, 4.005145399748646, 3.3586128780260367, 2.968577890039472, 2.2605083590461876, 2.7616770023414903, 1.8687318561655943, 3.1760339880183004, 3.500399547359869, 2.512877463265327, 3.769189973772672, 4.03280676022606, 3.7705208153027026, 4.748666503008252, 3.038160346723197, 2.7860388952138355, 3.7360617559737292, 5.167903054921808, 4.839640227837232, 5.115001840381141, 4.291072673184306, 5.392708643348708, 3.9759826841947334, 3.047497561799128, 4.267987833252814, 5.801799770749208, 6.037667966017457, 5.796152957026984, 6.525836601210808, 5.118263368134927, 5.226672080613474, 2.3292028561864115, 5.873782959945585, 5.938953147266116, 5.417034538507092, 4.893660098335162, 5.184696035319291, 4.251650887026348, 6.4944652197062736, 6.854556424508671, 5.885283401673613, 6.6361394519704415, 6.409184132022043, 5.983029289324598, 6.8705695817469685, 7.440771303478879, 7.500313225629019, 3.100165178733496, 0.7088810436153262, 2.9724161886354974, 1.6040903683437207, -0.1519689445144925, 4.238179337631041, 8.445719469802597, 3.7906513873715326, 9.609486490410365, -0.05582677564824563, 1.9756659144459212, 0.90125140716748, 10.033774719034232, -0.6617105604131728, -0.884147058914469, 5.455293148372477]}, {"children_left": [1, 2, 3, 4, 5, 6, 7, -1, -1, 10, -1, -1, 13, 14, -1, -1, 17, -1, -1, 20, 21, 22, -1, -1, 25, -1, -1, 28, 29, -1, -1, 32, -1, -1, 35, 36, 37, 38, -1, -1, 41, -1, -1, 44, 45, -1, -1, 48, -1, -1, 51, 52, 53, -1, -1, 56, -1, -1, 59, 60, -1, -1, 63, -1, -1, 66, 67, 68, 69, 70, -1, -1, 73, -1, -1, 76, 77, -1, -1, 80, -1, -1, 83, 84, 85, -1, -1, 88, -1, -1, 91, 92, -1, -1, 95, -1, -1, 98, 99, 100, 101, -1, -1, 104, -1, -1, 107, 108, -1, -1, 111, -1, -1, 114, 115, 116, -1, -1, 119, -1, -1, 122, 123, -1, -1, 126, -1, -1, 129, 130, 131, 132, 133, 134, -1, -1, 137, -1, -1, 140, 141, -1, -1, 144, -1, -1, 147, 148, 149, -1, -1, 152, -1, -1, 155, 156, -1, -1, 159, -1, -1, 162, 163, 164, 165, -1, -1, 168, -1, -1, 171, 172, -1, -1, 175, -1, -1, 178, 179, 180, -1, -1, 183, -1, -1, 186, 187, -1, -1, 190, -1, -1, 193, 194, 195, 196, 197, -1, -1, 200, -1, -1, 203, 204, -1, -1, 207, -1, -1, 210, 211, 212, -1, -1, 215, -1, -1, 218, 219, -1, -1, 222, -1, -1, 225, 226, 227, 228, -1, -1, 231, -1, -1, 234, 235, -1, -1, 238, -1, -1, 241, 242, 243, -1, -1, 246, -1, -1, 249, 250, -1, -1, 253, -1, -1], "children_right": [128, 65, 34, 19, 12, 9, 8, -1, -1, 11, -1, -1, 16, 15, -1, -1, 18, -1, -1, 27, 24, 23, -1, -1, 26, -1, -1, 31, 30, -1, -1, 33, -1, -1, 50, 43, 40, 39, -1, -1, 42, -1, -1, 47, 46, -1, -1, 49, -1, -1, 58, 55, 54, -1, -1, 57, -1, -1, 62, 61, -1, -1, 64, -1, -1, 97, 82, 75, 72, 71, -1, -1, 74, -1, -1, 79, 78, -1, -1, 81, -1, -1, 90, 87, 86, -1, -1, 89, -1, -1, 94, 93, -1, -1, 96, -1, -1, 113, 106, 103, 102, -1, -1, 105, -1, -1, 110, 109, -1, -1, 112, -1, -1, 121, 118, 117, -1, -1, 120, -1, -1, 125, 124, -1, -1, 127, -1, -1, 192, 161, 146, 139, 136, 135, -1, -1, 138, -1, -1, 143, 142, -1, -1, 145, -1, -1, 154, 151, 150, -1, -1, 153, -1, -1, 158, 157, -1, -1, 160, -1, -1, 177, 170, 167, 166, -1, -1, 169, -1, -1, 174, 173, -1, -1, 176, -1, -1, 185, 182, 181, -1, -1, 184, -1, -1, 189, 188, -1, -1, 191, -1, -1, 224, 209, 202, 199, 198, -1, -1, 201, -1, -1, 206, 205, -1, -1, 208, -1, -1, 217, 214, 213, -1, -1, 216, -1, -1, 221, 220, -1, -1, 223, -1, -1, 240, 233, 230, 229, -1, -1, 232, -1, -1, 237, 236, -1, -1, 239, -1, -1, 248, 245, 244, -1, -1, 247, -1, -1, 252, 251, -1, -1, 254, -1, -1], "feature": [15, 15, 15, 15, 2, 1, 5, -2, -2, 6, -2, -2, 7, 0, -2, -2, 3, -2, -2, 15, 3, 7, -2, -2, 15, -2, -2, 7, 3, -2, -2, 3, -2, -2, 7, 15, 3, 5, -2, -2, 2, -2, -2, 6, 3, -2, -2, 7, -2, -2, 15, 3, 5, -2, -2, 5, -2, -2, 3, 5, -2, -2, 6, -2, -2, 15, 7, 15, 5, 0, -2, -2, 3, -2, -2, 3, 6, -2, -2, 2, -2, -2, 15, 3, 5, -2, -2, 5, -2, -2, 3, 5, -2, -2, 10, -2, -2, 7, 5, 3, 5, -2, -2, 15, -2, -2, 5, 11, -2, -2, 15, -2, -2, 3, 5, 2, -2, -2, 5, -2, -2, 15, 3, -2, -2, 10, -2, -2, 15, 7, 15, 7, 15, 3, -2, -2, 3, -2, -2, 6, 3, -2, -2, 3, -2, -2, 5, 15, 1, -2, -2, 3, -2, -2, 5, 6, -2, -2, 3, -2, -2, 15, 15, 3, 5, -2, -2, 5, -2, -2, 3, 5, -2, -2, 5, -2, -2, 5, 3, 1, -2, -2, 2, -2, -2, 5, 11, -2, -2, 3, -2, -2, 15, 7, 7, 15, 3, -2, -2, 3, -2, -2, 6, 15, -2, -2, 3, -2, -2, 3, 15, 0, -2, -2, 5, -2, -2, 15, 5, -2, -2, 5, -2, -2, 15, 7, 15, 3, -2, -2, 15, -2, -2, 3, 2, -2, -2, 15, -2, -2, 0, 3, 15, -2, -2, 2, -2, -2, 3, 7, -2, -2, 2, -2, -2], "threshold": [3.1276415586471558, 1.6782900094985962, 1.1555945873260498, 4.2115600081160665e-05, -74.04413604736328, 40.666282653808594, 17.0, -2.0, -2.0, 4.5, -2.0, -2.0, 2012.5, -73.92979049682617, -2.0, -2.0, 40.65243339538574, -2.0, -2.0, 0.9057616889476776, 40.766923904418945, 2012.5, -2.0, -2.0, 0.06291438639163971, -2.0, -2.0, 2012.5, 40.76976776123047, -2.0, -2.0, 40.76897621154785, -2.0, -2.0, 2012.5, 1.4432178139686584, 40.768394470214844, 7.5, -2.0, -2.0, -73.93206024169922, -2.0, -2.0, 8.5, 40.76995086669922, -2.0, -2.0, 2011.5, -2.0, -2.0, 1.4462127685546875, 40.767520904541016, 7.5, -2.0, -2.0, 19.5, -2.0, -2.0, 40.77321434020996, 18.5, -2.0, -2.0, 8.5, -2.0, -2.0, 2.4369596242904663, 2012.5, 2.091610312461853, 7.5, -73.89339828491211, -2.0, -2.0, 40.76970672607422, -2.0, -2.0, 40.781145095825195, 8.5, -2.0, -2.0, -73.9936637878418, -2.0, -2.0, 2.000901937484741, 40.77670478820801, 7.5, -2.0, -2.0, 18.5, -2.0, -2.0, 40.771461486816406, 7.5, -2.0, -2.0, 0.5, -2.0, -2.0, 2012.5, 7.5, 40.734323501586914, 3.5, -2.0, -2.0, 2.7042845487594604, -2.0, -2.0, 18.5, 0.5, -2.0, -2.0, 2.740678548812866, -2.0, -2.0, 40.774824142456055, 7.5, -73.96209716796875, -2.0, -2.0, 18.5, -2.0, -2.0, 2.712820291519165, 40.791215896606445, -2.0, -2.0, 0.5, -2.0, -2.0, 5.018527030944824, 2012.5, 4.024247407913208, 2011.5, 3.5237571001052856, 40.78187942504883, -2.0, -2.0, 40.75694274902344, -2.0, -2.0, 8.5, 40.775381088256836, -2.0, -2.0, 40.777719497680664, -2.0, -2.0, 7.5, 4.331967115402222, 40.72305107116699, -2.0, -2.0, 40.747419357299805, -2.0, -2.0, 19.5, 8.5, -2.0, -2.0, 40.726369857788086, -2.0, -2.0, 4.044447660446167, 3.4459104537963867, 40.7742977142334, 7.5, -2.0, -2.0, 17.5, -2.0, -2.0, 40.76979446411133, 7.5, -2.0, -2.0, 19.5, -2.0, -2.0, 7.5, 40.74249076843262, 40.74781608581543, -2.0, -2.0, -73.94559097290039, -2.0, -2.0, 19.5, 0.5, -2.0, -2.0, 40.72882270812988, -2.0, -2.0, 6.41647744178772, 2012.5, 2011.5, 5.854607343673706, 40.7562141418457, -2.0, -2.0, 40.767263412475586, -2.0, -2.0, 8.5, 5.573938369750977, -2.0, -2.0, 40.71848106384277, -2.0, -2.0, 40.76546096801758, 5.6174681186676025, -73.95312118530273, -2.0, -2.0, 7.5, -2.0, -2.0, 5.7737507820129395, 6.5, -2.0, -2.0, 7.5, -2.0, -2.0, 12.68505859375, 2012.5, 7.725145578384399, 40.77455520629883, -2.0, -2.0, 9.218897819519043, -2.0, -2.0, 40.716552734375, -74.04375457763672, -2.0, -2.0, 10.902310371398926, -2.0, -2.0, -73.99266815185547, 40.84478950500488, 15.16756534576416, -2.0, -2.0, -73.93880844116211, -2.0, -2.0, 40.715187072753906, 2009.5, -2.0, -2.0, -73.97151184082031, -2.0, -2.0], "value": [4.78655672372907e-17, -1.1757599001492003, -1.9959389126128975, -2.3753309009532444, -1.1482458551411168, 2.0406573584801095, 11.058871877362975, 9.019150054960694, 13.098593699765257, 0.23701445470353733, -3.330213868839065, 3.8042427782461394, -1.175175368556636, -1.3464726359962786, -1.4567412274257083, -0.645104384387369, -0.6284389574365943, -4.1504218438161145, -0.5213878058749061, -2.4304276539108467, -2.636981928074412, -2.547739471730889, -2.6859162188608767, -2.31259478224317, -2.90596884194354, -0.5622057309251928, -2.960220313402633, -2.112752929273297, -2.3050344613377924, -2.2308922794084904, -2.634617636204679, -1.786496982094724, -1.6552438038814894, -2.292115364764463, -1.4914344055873672, -1.7492977368363911, -1.9206220000653251, -1.8286220053364397, -2.2383398018177285, -1.7511858227715478, -2.2906049624181573, -2.3157874106422436, 0.15069349041728422, -1.522037667557624, -1.654290897510638, -1.568211181470636, -2.037313909177577, -1.259894982985891, -1.520291288563021, -0.5441322736859758, -1.0722276267889757, -1.289306528210281, -1.15511150468505, -1.8081057803047387, -1.0407120304776376, -1.8022554370991621, -1.7280914217406158, -2.1906196895681247, -0.7653437818178357, -0.6423777258106219, -0.45782913531077596, -1.124287997419873, -1.4134976681568552, -1.5309995082550498, -1.1428128009149372, -0.11661882106240323, -0.5164047034073671, -0.8601596436844521, -1.0748904957956487, -1.529750421506674, -1.5447173561790095, 1.476732580798449, -0.9911373570402895, -0.8612196107919755, -1.4242179074045882, -0.5546535299821408, -0.490098112619446, -0.622582617084066, -0.22718970440007777, -1.0973848996654056, 10.842763155508797, -1.1127915423172425, 0.06404687896235113, -0.2786879165532868, -0.1709892760176969, -0.898048048627769, -0.03618506589850517, -0.956147107019048, -0.816081490617613, -1.3188433347532895, 0.3737665087885425, 0.5149443891972029, -0.1486964589269432, 0.6603435950098105, -0.14725569435646024, -0.04781925664415791, -0.7633955844756374, 0.5423586108525107, 0.08128280929232731, -0.3950482317771859, 0.1251166044735443, 0.39016535449084677, -0.6573073055775313, -0.5760069846700462, -0.8270848874729114, -0.3797440819772171, 0.1843460709481094, 0.3778874943188264, 0.4785822642049374, -0.34499342946674816, -0.16083731094780393, -0.444064960964018, 0.10211068937064739, 1.3268582352654792, 1.4811371054861888, 0.7366472731325294, 0.5880754315229865, 1.6080010468965926, 1.663710523220069, 1.9598580380794413, 1.172348953315347, 0.6436610752065224, 0.27729169409071824, 0.4986772398186101, -0.2958845818349145, 0.9431580419845051, 1.0884222098256011, -0.033437206874919405, 3.129503423668343, 2.0744289877801236, 1.526989006591183, 1.0478400609848708, 0.8866836371489337, 0.6294266647769319, 0.7164205747327471, -0.04991039333957327, 1.1460492732289087, 1.3768548097535291, 0.8459376049266458, 1.5087348917997083, 0.9981575774081635, 1.133257287975937, 0.27220685049833715, 2.5180614746895524, 2.7268801029396017, 1.3036162946037604, 2.204291379354517, 1.5619206707830713, 1.1131095542005622, 1.7744567077859075, 0.9553082226480283, 1.7956870020808362, 2.2256025606374226, 1.485146054929283, 2.378754452811913, 2.650016714592884, 2.390955342825321, 3.1809501853033133, 1.8269503405757146, 2.6988631013062676, 1.4747454432308706, 3.0163223369047296, 2.4709261728070744, 2.0557970719096654, 2.2110293224353006, 1.4188372456711051, 2.4235831008795126, 1.4021267762719118, 1.8106692167115013, 0.8188463040780385, 2.749892928610029, 2.9556992643305144, 2.2203199389583537, 3.1728899479075108, 2.042141311025799, 2.275063410248451, 1.5228746127587882, 3.8002824352294096, 3.056573304589601, 3.5583577099547656, 4.022675903473869, 2.9446784192197257, 2.733092872393046, 2.551566748017506, 3.69163935842492, 4.026222762938148, 4.330003783086679, 4.532388016411406, 3.3838885328201247, 3.4270810920696277, 4.236390713880606, 3.07917665098627, 4.842640116335939, 4.125459368589622, 3.5128430948157994, 3.2663646082200173, 2.975174949714638, 3.316357929785512, 2.540806740357391, 3.848520448900376, 4.174445558198478, 3.1206479963735956, 4.180830560569134, 3.4943819831659737, 3.0076314183857966, 3.919265186441373, 5.744061184564478, 6.6102697207556, 5.451814535575989, 5.228993733805084, 5.520190862622075, 5.131276459997747, 5.265894999311027, 4.107730541252079, 5.938434553874155, 5.288493434585335, 6.191137628949142, 4.620237197079548, 4.239042067134496, 3.4581567332539698, 4.486505729279735, 5.15486336682752, 4.37457526361921, 5.469716461104551, 5.757114265186362, 5.834633496556764, 5.5216692090115345, 4.9457493624785585, 5.233641768492362, 4.214418983661404, 6.265866503470769, 6.016503564272039, 6.823334665517126, 6.7234221602307365, 7.328282211184735, -4.77144894256895, 7.355051527896587, 6.4990146228989465, 6.52587854642546, -4.407738328875215, 0.6200666440646737, 2.8884455228423236, 1.5371328982449157, -0.1443704972887679, 4.419710147731232, 8.023433496312467, 3.6011188180029556, 9.129012165889847, -0.12570175443756698, -1.7212050049691991, -5.888509275734606, -0.9857983689517741, 0.4763749438762562, -0.45540435874549046, 2.8368825105180138]}, {"children_left": [1, 2, 3, 4, 5, 6, 7, -1, -1, 10, -1, -1, 13, 14, -1, -1, 17, -1, -1, 20, 21, 22, -1, -1, 25, -1, -1, 28, 29, -1, -1, 32, -1, -1, 35, 36, 37, 38, -1, -1, 41, -1, -1, 44, 45, -1, -1, 48, -1, -1, 51, 52, 53, -1, -1, 56, -1, -1, 59, 60, -1, -1, 63, -1, -1, 66, 67, 68, 69, 70, -1, -1, 73, -1, -1, 76, 77, -1, -1, 80, -1, -1, 83, 84, 85, -1, -1, 88, -1, -1, 91, 92, -1, -1, 95, -1, -1, 98, 99, 100, 101, -1, -1, 104, -1, -1, 107, 108, -1, -1, 111, -1, -1, 114, 115, 116, -1, -1, 119, -1, -1, 122, 123, -1, -1, 126, -1, -1, 129, 130, 131, 132, 133, 134, -1, -1, 137, -1, -1, 140, 141, -1, -1, 144, -1, -1, 147, 148, 149, -1, -1, 152, -1, -1, 155, 156, -1, -1, 159, -1, -1, 162, 163, 164, 165, -1, -1, 168, -1, -1, 171, 172, -1, -1, 175, -1, -1, 178, 179, 180, -1, -1, 183, -1, -1, 186, 187, -1, -1, 190, -1, -1, 193, 194, 195, 196, 197, -1, -1, 200, -1, -1, 203, 204, -1, -1, 207, -1, -1, 210, 211, 212, -1, -1, 215, -1, -1, 218, 219, -1, -1, 222, -1, -1, 225, 226, 227, 228, -1, -1, 231, -1, -1, 234, 235, -1, -1, 238, -1, -1, 241, 242, 243, -1, -1, 246, -1, -1, 249, 250, -1, -1, 253, -1, -1], "children_right": [128, 65, 34, 19, 12, 9, 8, -1, -1, 11, -1, -1, 16, 15, -1, -1, 18, -1, -1, 27, 24, 23, -1, -1, 26, -1, -1, 31, 30, -1, -1, 33, -1, -1, 50, 43, 40, 39, -1, -1, 42, -1, -1, 47, 46, -1, -1, 49, -1, -1, 58, 55, 54, -1, -1, 57, -1, -1, 62, 61, -1, -1, 64, -1, -1, 97, 82, 75, 72, 71, -1, -1, 74, -1, -1, 79, 78, -1, -1, 81, -1, -1, 90, 87, 86, -1, -1, 89, -1, -1, 94, 93, -1, -1, 96, -1, -1, 113, 106, 103, 102, -1, -1, 105, -1, -1, 110, 109, -1, -1, 112, -1, -1, 121, 118, 117, -1, -1, 120, -1, -1, 125, 124, -1, -1, 127, -1, -1, 192, 161, 146, 139, 136, 135, -1, -1, 138, -1, -1, 143, 142, -1, -1, 145, -1, -1, 154, 151, 150, -1, -1, 153, -1, -1, 158, 157, -1, -1, 160, -1, -1, 177, 170, 167, 166, -1, -1, 169, -1, -1, 174, 173, -1, -1, 176, -1, -1, 185, 182, 181, -1, -1, 184, -1, -1, 189, 188, -1, -1, 191, -1, -1, 224, 209, 202, 199, 198, -1, -1, 201, -1, -1, 206, 205, -1, -1, 208, -1, -1, 217, 214, 213, -1, -1, 216, -1, -1, 221, 220, -1, -1, 223, -1, -1, 240, 233, 230, 229, 